country_1,country_2,airspace_def_v1,airspace_def_v2,airspace_v1,airspace_v2,airspace_v3,airspace_v4,airspace_v5,baseline,border_def_v1,border_def_v2,border_v1,border_v2,border_v3,border_v4,border_v5,cyber_def_v1,cyber_def_v2,cyber_v1,cyber_v2,cyber_v3,cyber_v4,cyber_v5,espionage_def_v1,espionage_def_v2,espionage_v1,espionage_v2,espionage_v3,espionage_v4,espionage_v5,humanitarian_def_v1,humanitarian_def_v2,humanitarian_v1,humanitarian_v2,humanitarian_v3,humanitarian_v4,humanitarian_v5,internal_affairs_def_v1,internal_affairs_v1,internal_affairs_v2,maritime_def_v1,maritime_def_v2,maritime_v1,maritime_v2,maritime_v3,maritime_v4,maritime_v5,nuclear_def_v1,nuclear_def_v2,nuclear_v1,nuclear_v2,nuclear_v3,nuclear_v4,nuclear_v5,proxy_def_v1,proxy_def_v2,proxy_v1,proxy_v2,proxy_v3,proxy_v4,proxy_v5,sovereignty_def_v1,sovereignty_v1,sovereignty_v2,strike_def_v1,strike_def_v2,strike_v1,strike_v2,strike_v3,strike_v4,strike_v5,tech_war_def_v1,tech_war_v1,tech_war_v2,trade_def_v1,trade_def_v2,trade_v1,trade_v2,trade_v3,trade_v4,trade_v5
Aeloria,Brevnia,0.37654876336455345,0.4596385955810547,0.4210662692785263,0.34037020429968834,0.35298918932676315,0.34893036261200905,0.46721265837550163,0.4527930822223425,0.4676475413143635,0.22830583155155182,0.43860457465052605,0.39764976873993874,0.42504119873046875,0.36484529078006744,0.4121284484863281,0.3595390245318413,0.3469896428287029,0.38907357677817345,0.3625526502728462,0.3681068643927574,0.53215766325593,0.5045906603336334,0.4555644951760769,0.38649748265743256,0.28342438116669655,0.37930677086114883,0.4302501305937767,0.46109198965132236,0.3232269510626793,0.43357565253973007,0.44495389983057976,0.47941211983561516,0.4045563042163849,0.4623871147632599,0.4067893009632826,0.265427615493536,0.35424040257930756,0.4546661749482155,0.41750526055693626,0.36780738085508347,0.42160607501864433,0.4525160752236843,0.4208488389849663,0.3873138427734375,0.383544921875,0.46722982078790665,0.4361877553164959,0.2363567166030407,0.435875054448843,0.5074710622429848,0.2963371090590954,0.3677959181368351,0.2973751872777939,0.5347022637724876,0.4600343480706215,0.5607357136905193,0.4919586032629013,0.40694618225097656,0.37636565044522285,0.3949241526424885,0.43648887798190117,0.347732525318861,0.3995313346385956,0.4746093563735485,0.4432016760110855,0.38050078228116035,0.32985688000917435,0.345806110650301,0.4750833548605442,0.4895839784294367,0.31502245739102364,0.396774273365736,0.32387541234493256,0.35737988725304604,0.44317152723670006,0.2656536102294922,0.43276213854551315,0.33543774485588074,0.40274808928370476,0.27953577414155006
Aeloria,Junwei,0.13782501965761185,0.19061659649014473,0.1514892578125,0.15566252171993256,0.16770171374082565,0.1311950758099556,0.15115737915039062,0.2192535400390625,0.20888140052556992,0.19284626096487045,0.23332024365663528,0.22606658935546875,0.18887712061405182,0.14673612266778946,0.18456649035215378,0.16419219970703125,0.1846923977136612,0.19631002843379974,0.16663742810487747,0.16651345789432526,0.17763139307498932,0.194061279296875,0.18106839060783386,0.18302152305841446,0.1327209547162056,0.16448974609375,0.15433117002248764,0.15829752758145332,0.10924530774354935,0.13849258422851562,0.19031359255313873,0.1683654859662056,0.15877531841397285,0.2011699676513672,0.2869456969201565,0.24922559037804604,0.16994477808475494,0.19409944862127304,0.17171191796660423,0.20304489135742188,0.19267508387565613,0.21177555620670319,0.21111872047185898,0.17640303820371628,0.2031860500574112,0.1946258470416069,0.19797750934958458,0.2481999471783638,0.15077972412109375,0.21248245984315872,0.17148590087890625,0.22601605206727982,0.1927327774465084,0.15321730077266693,0.1658591851592064,0.18187713623046875,0.20656583458185196,0.11479566246271133,0.17525481432676315,0.15908809751272202,0.2133006602525711,0.189571350812912,0.23961162567138672,0.1337890625,0.1679839938879013,0.17267991602420807,0.1254577562212944,0.15625762194395065,0.15184592455625534,0.13959122821688652,0.21670152992010117,0.16403194516897202,0.18411064893007278,0.21138004213571548,0.18899918347597122,0.2345915175974369,0.2661914713680744,0.17014551162719727,0.14743755385279655,0.22304346039891243
Aeloria,Zembala,0.30065538361668587,0.37940217182040215,0.37175558134913445,0.28965380042791367,0.3153267130255699,0.278701763600111,0.41428566351532936,0.33803174272179604,0.3312397226691246,0.2704276815056801,0.4103412702679634,0.34966758638620377,0.3970905765891075,0.2503700517117977,0.3352794833481312,0.2724304087460041,0.36230944842100143,0.37989187240600586,0.2846412733197212,0.37979700416326523,0.35546302050352097,0.3629770390689373,0.33280564472079277,0.3190002478659153,0.2679405026137829,0.31356048583984375,0.3013339079916477,0.340129841119051,0.268661480396986,0.3430309481918812,0.4421348311007023,0.4296893924474716,0.30074311047792435,0.38615226931869984,0.3751106522977352,0.2699451632797718,0.2953453026711941,0.32660866156220436,0.32168151065707207,0.37783433496952057,0.3978629522025585,0.3997650220990181,0.4116363488137722,0.27576063945889473,0.43036652356386185,0.381305567920208,0.4277076721191406,0.26222038641572,0.33849282562732697,0.40413758903741837,0.26194001361727715,0.3756866417825222,0.3115672841668129,0.35585593432188034,0.42591287568211555,0.3607644960284233,0.3764803223311901,0.2371406853199005,0.31218717992305756,0.27485276386141777,0.34771678596735,0.353652935475111,0.4142608866095543,0.34269334003329277,0.3324565961956978,0.31476210802793503,0.27005767077207565,0.3055877834558487,0.4305800832808018,0.319954851642251,0.3540382646024227,0.3304004818201065,0.3586578406393528,0.33313753455877304,0.4081554412841797,0.24939538538455963,0.42053772881627083,0.30804062634706497,0.36153794080018997,0.2705202177166939
Country A,Country B,0.32305527850985527,0.35668183490633965,0.35283660143613815,0.2855873294174671,0.3656463585793972,0.32127760350704193,0.32712938264012337,0.1695900298655033,0.36326214112341404,0.30999376252293587,0.29952622577548027,0.3020172417163849,0.2461395226418972,0.2427215315401554,0.2505493126809597,0.20837780833244324,0.28427504003047943,0.27797696739435196,0.24982835724949837,0.3283195700496435,0.2774391174316406,0.23973463848233223,0.288463581353426,0.2548217587172985,0.2510871961712837,0.24592972546815872,0.2229919694364071,0.32065584510564804,0.2896957602351904,0.34616852551698685,0.3664970397949219,0.31245035119354725,0.305549630895257,0.3637275565415621,0.3156432807445526,0.3300437852740288,0.26420209370553493,0.2933960519731045,0.34437556751072407,0.3937225416302681,0.34568026661872864,0.2935066223144531,0.3364715874195099,0.2527656629681587,0.31217192485928535,0.280857115983963,0.32251355797052383,0.28229907900094986,0.2838745042681694,0.3182410914450884,0.2436103280633688,0.29467014223337173,0.28316497430205345,0.275959026068449,0.3291015736758709,0.20552444085478783,0.20027925074100494,0.20822526142001152,0.18169403076171875,0.25615693628787994,0.24536897614598274,0.316116314381361,0.3306922912597656,0.29927446134388447,0.24989699572324753,0.2982483394443989,0.2970924563705921,0.2923660334199667,0.386032048612833,0.30492405965924263,0.32258983328938484,0.2558860816061497,0.3163757026195526,0.34270477667450905,0.2869567982852459,0.2851410284638405,0.25951386243104935,0.3522910885512829,0.32839585468173027,0.26996995136141777
Country X,Country Y,-0.045703865587711334,-0.06932828947901726,-0.04368208348751068,-0.05089950934052467,-0.023994438350200653,-0.046600330621004105,-0.07261278480291367,-0.029823336750268936,-0.06003189831972122,-0.01583864539861679,-0.029106155037879944,-0.04613875597715378,-0.045799292623996735,-0.05200576409697533,-0.018043510615825653,-0.04871746897697449,-0.04893113672733307,-0.04915238916873932,-0.05477522313594818,-0.05496210604906082,-0.044410720467567444,-0.015052787959575653,-0.05849834904074669,-0.052440620958805084,-0.050411224365234375,-0.03921125829219818,-0.04459763318300247,-0.056339263916015625,-0.08203125,-0.07846833392977715,-0.03203583508729935,-0.08191680163145065,-0.062076546251773834,-0.06874850392341614,-0.028553012758493423,-0.05954360216856003,-0.04811856895685196,-0.046028122305870056,-0.057468388229608536,-0.03420637547969818,-0.040287017822265625,-0.03610615432262421,-0.031051605939865112,-0.03794858604669571,-0.02426910400390625,-0.05135346204042435,-0.03577042371034622,-0.0451660193502903,-0.057708725333213806,-0.04540250822901726,-0.037757836282253265,-0.039646148681640625,-0.038059234619140625,-0.05027010291814804,-0.043354034423828125,-0.041419968008995056,-0.051544204354286194,-0.0603637769818306,-0.023193329572677612,-0.04590226709842682,-0.061462365090847015,-0.055446647107601166,-0.04590605944395065,-0.04425046592950821,-0.025798819959163666,-0.036788973957300186,-0.04276660829782486,-0.04846194013953209,-0.056476593017578125,-0.020664162933826447,0.0004501640796661377,-0.023990638554096222,-0.04676060378551483,-0.06201934814453125,-0.025928497314453125,-0.03234478086233139,-0.044963836669921875,-0.009040817618370056,-0.06251143664121628,-0.019924163818359375
Germany,Japan,-0.18432237207889557,-0.18791582435369492,-0.2084503397345543,-0.2001037448644638,-0.19150162488222122,-0.1860962137579918,-0.19927214086055756,-0.1794891059398651,-0.22938919067382812,-0.19257737696170807,-0.22782515734434128,-0.21048355847597122,-0.1764679178595543,-0.1874694749712944,-0.2003173902630806,-0.15804291516542435,-0.20701218396425247,-0.1968841776251793,-0.15482332557439804,-0.1738891750574112,-0.18989179283380508,-0.16966629773378372,-0.1915893405675888,-0.1807098612189293,-0.15416716039180756,-0.13726422935724258,-0.168792724609375,-0.20003127306699753,-0.1897735819220543,-0.20716097950935364,-0.23212432861328125,-0.19965744018554688,-0.1748962625861168,-0.20195388793945312,-0.1839599609375,-0.20280836522579193,-0.16351696848869324,-0.19304274022579193,-0.1856536790728569,-0.20609666407108307,-0.21155545860528946,-0.22635651379823685,-0.22572708874940872,-0.19763187319040298,-0.20203018933534622,-0.2251892387866974,-0.23101425915956497,-0.23472976684570312,-0.2177734598517418,-0.2144012227654457,-0.18777469545602798,-0.23888394981622696,-0.23017504066228867,-0.17975620180368423,-0.17655564844608307,-0.19176864624023438,-0.20236966013908386,-0.18083953857421875,-0.17905045300722122,-0.1696624904870987,-0.2000579982995987,-0.20496749877929688,-0.20317459851503372,-0.18621060997247696,-0.1930847316980362,-0.20476530492305756,-0.2002602145075798,-0.17343900352716446,-0.19942858070135117,-0.20921709388494492,-0.1913146898150444,-0.17644879966974258,-0.19124602526426315,-0.20967482030391693,-0.22076416015625,-0.20503616333007812,-0.18975447118282318,-0.207916259765625,-0.19320296496152878,-0.1858825907111168
Germany,Russia,-0.08156204223632812,-0.0780029296875,-0.10663984715938568,-0.08804702758789062,-0.10065843164920807,-0.07486343383789062,-0.11231998354196548,-0.09667966142296791,-0.12896347045898438,-0.10005570948123932,-0.12923047691583633,-0.1042328029870987,-0.08221055567264557,-0.059444427490234375,-0.08377453684806824,-0.07726290076971054,-0.12895964831113815,-0.1002349928021431,-0.06392289698123932,-0.07917024940252304,-0.07307436317205429,-0.1051788404583931,-0.0971374660730362,-0.11329270154237747,-0.06723403185606003,-0.05942535400390625,-0.0830993726849556,-0.07968522608280182,-0.10502243787050247,-0.10548022389411926,-0.13777542114257812,-0.04885482043027878,-0.04738617688417435,-0.09419630467891693,-0.07848741114139557,-0.0955047607421875,-0.0791931301355362,-0.07705305516719818,-0.09882354736328125,-0.1104736402630806,-0.12375643849372864,-0.12279128283262253,-0.12787241488695145,-0.0823669582605362,-0.10310746729373932,-0.11455532908439636,-0.12488173693418503,-0.1143798679113388,-0.10152814537286758,-0.1534881666302681,-0.1022377461194992,-0.1063537672162056,-0.11492157727479935,-0.0980377197265625,-0.1025085374712944,-0.09783933311700821,-0.1035919040441513,-0.07247548550367355,-0.07920075207948685,-0.07134246081113815,-0.11944959312677383,-0.09181217104196548,-0.09790801256895065,-0.09695054590702057,-0.09078215062618256,-0.08023074269294739,-0.09407805651426315,-0.05879972130060196,-0.11284256726503372,-0.09574892371892929,-0.09661485999822617,-0.0647583156824112,-0.07742691040039062,-0.12360765784978867,-0.10464854538440704,-0.08854294568300247,-0.09336855262517929,-0.10160442441701889,-0.11544416844844818,-0.07196809351444244
Germany,South Korea,-0.027500145137310028,-0.03965761512517929,-0.03464510291814804,-0.03238680958747864,-0.026592254638671875,-0.01296234130859375,-0.03868866711854935,-0.04813385754823685,-0.04675295948982239,-0.05622480809688568,-0.08005142211914062,-0.0395813062787056,-0.0461883619427681,-0.02712247520685196,-0.045154571533203125,-0.02338404953479767,-0.06541059911251068,-0.038276657462120056,-0.026271827518939972,-0.022651702165603638,-0.032665252685546875,-0.035228706896305084,-0.026885993778705597,-0.04472733289003372,-0.016311638057231903,-0.00406646728515625,-0.0484619215130806,-0.0635642483830452,-0.03745649755001068,-0.002876274287700653,-0.03847123682498932,-0.01725771278142929,-0.00989530235528946,-0.04426191747188568,-0.055091843008995056,-0.0456390455365181,-0.06391142308712006,-0.06111147254705429,-0.06925582140684128,-0.04260636121034622,-0.0591583326458931,-0.0691223293542862,-0.0713043138384819,-0.04299544543027878,-0.04802703857421875,-0.06589128077030182,-0.08101269602775574,-0.08927533775568008,-0.04838179796934128,-0.07439422607421875,-0.0658416673541069,-0.09786225855350494,-0.0606536939740181,-0.02874758094549179,-0.05528642237186432,-0.034927405416965485,-0.03711319714784622,-0.020046234130859375,-0.03960035741329193,-0.03861617296934128,-0.05466843396425247,-0.07882309705018997,-0.07032773643732071,-0.03693774342536926,-0.04058077931404114,-0.059307120740413666,-0.0445861741900444,-0.029071807861328125,-0.034053780138492584,-0.06208798289299011,-0.035652197897434235,-0.05144120007753372,-0.04306410253047943,-0.05116269737482071,-0.055530548095703125,-0.04898455739021301,-0.04674532264471054,-0.058773063123226166,-0.06983568519353867,-0.04681778699159622
India,Russia,0.27019883692264557,0.28150176256895065,0.24032213538885117,0.2580222897231579,0.24299239367246628,0.27511974424123764,0.2547340467572212,0.26601410657167435,0.27138902992010117,0.24163053184747696,0.2547416612505913,0.2547569274902344,0.2631225436925888,0.28076549619436264,0.2666511535644531,0.2633400112390518,0.24255752563476562,0.2658271864056587,0.2495117485523224,0.2610778510570526,0.28493499755859375,0.23999404162168503,0.283016175031662,0.2489624097943306,0.2720832824707031,0.2842063754796982,0.24827192723751068,0.282653845846653,0.2761497274041176,0.27296828478574753,0.2608070522546768,0.31303783506155014,0.3184966668486595,0.3093109205365181,0.2802238464355469,0.3099212571978569,0.2692222520709038,0.31356432288885117,0.27548598498106003,0.291961669921875,0.26412586867809296,0.2594642713665962,0.26072314381599426,0.2599296569824219,0.27747728675603867,0.28034210950136185,0.23815536499023438,0.2536163255572319,0.27132030576467514,0.26369860768318176,0.2500953860580921,0.2626342996954918,0.2518806606531143,0.2824249118566513,0.27684783190488815,0.25806427001953125,0.2728462293744087,0.25034333020448685,0.26068493723869324,0.2736930623650551,0.27315136045217514,0.26770783960819244,0.28815843164920807,0.2745704688131809,0.24903105199337006,0.2622222825884819,0.23940660804510117,0.26657482236623764,0.2508697621524334,0.2500266805291176,0.27066802233457565,0.2611350938677788,0.2809333950281143,0.2688598781824112,0.25788500905036926,0.24690628796815872,0.2677803114056587,0.26877596974372864,0.24738311767578125,0.27405545115470886
Japan,China,0.09138869494199753,0.06992723792791367,0.10149379074573517,0.08800886571407318,0.08843613415956497,0.0902099534869194,0.10110089927911758,0.05268864333629608,0.09947202354669571,0.06729123741388321,0.0855712965130806,0.08268356323242188,0.0781097486615181,0.05322265625,0.06703947484493256,0.0264892578125,0.07081984728574753,0.08239365369081497,0.04350666701793671,0.07851792126893997,0.08225250989198685,0.044979095458984375,0.07015231251716614,0.044601425528526306,0.051723457872867584,0.032539382576942444,0.04277421534061432,0.07850649207830429,0.06970978528261185,0.09938811510801315,0.08038710802793503,0.1150055080652237,0.09772872179746628,0.08507157117128372,0.08138656616210938,0.07925035059452057,0.03728865832090378,0.06624983251094818,0.06667328625917435,0.07860950380563736,0.08485031872987747,0.08174136281013489,0.1039733737707138,0.07988739013671875,0.06232067197561264,0.07478329539299011,0.08884811401367188,0.10158155113458633,0.08741378039121628,0.08333205431699753,0.04038620740175247,0.10981365293264389,0.09482191503047943,0.06958772242069244,0.0655670166015625,0.06053539365530014,0.047882094979286194,0.06876755505800247,0.06197354942560196,0.058223724365234375,0.06769941747188568,0.07181168347597122,0.06388470530509949,0.07875446230173111,0.07550814002752304,0.08053966611623764,0.09893033653497696,0.0794372409582138,0.08797072619199753,0.0933532789349556,0.057743072509765625,0.08198929578065872,0.060813941061496735,0.08570098131895065,0.06645582616329193,0.0787009671330452,0.06401065737009048,0.07984927296638489,0.08047102391719818,0.0792999342083931
Junwei,Khemara,0.13139346987009048,0.06115986779332161,0.13309094682335854,0.09975430369377136,0.14015579596161842,0.1317443922162056,0.13567736744880676,0.02298353984951973,0.0014686398208141327,0.16288374364376068,-0.006938926875591278,0.007038109004497528,0.06576725840568542,0.0856323316693306,0.013539761304855347,0.04907608777284622,-0.014036647975444794,-0.00577545166015625,0.06034087389707565,0.05303099751472473,0.0622406005859375,0.07413481175899506,0.09610749036073685,0.01830480247735977,0.12730026245117188,0.07645799219608307,0.06865117698907852,0.11585234850645065,0.14858630299568176,0.07544040307402611,0.08545496314764023,0.09714889526367188,0.10801317542791367,0.06084440276026726,-0.01759720966219902,-0.03609086200594902,0.11942671984434128,0.10178760439157486,0.06500434502959251,0.15012741461396217,0.1217365488409996,0.06642916053533554,0.009677864611148834,0.08708573877811432,-0.014251701533794403,0.05131818354129791,0.10544779524207115,0.03141976147890091,0.10718534886837006,0.0698852464556694,0.08903506398200989,0.04857731610536575,0.09610368311405182,0.07162855565547943,0.11145021766424179,0.05852890759706497,0.020643718540668488,0.0861358642578125,0.09437178820371628,0.07248688489198685,0.0015411525964736938,0.09860993921756744,0.04172515124082565,0.11220168694853783,0.08421709388494492,0.09912873804569244,0.11938480287790298,0.13774875178933144,0.07125412672758102,0.05042695999145508,-0.056241996586322784,0.0597228929400444,0.03837347775697708,0.10813974216580391,0.022935882210731506,-0.07813262939453125,-0.0917501375079155,0.05246733874082565,0.20352553203701973,-0.006142646074295044
Nation 1,Nation 2,0.24419401586055756,0.24086379259824753,0.2736816331744194,0.21645735576748848,0.2664031870663166,0.23723220825195312,0.249790221452713,0.15110014006495476,0.2559089697897434,0.21921537443995476,0.20546343177556992,0.20018385350704193,0.2366332858800888,0.195407897233963,0.1801147349178791,0.1840095855295658,0.1921996846795082,0.20102308690547943,0.2260131984949112,0.20355983078479767,0.21944807097315788,0.21527864038944244,0.24150465801358223,0.20090100541710854,0.21211622282862663,0.22229383140802383,0.1885680966079235,0.25476838275790215,0.24187852069735527,0.23702239990234375,0.235458355396986,0.21797947585582733,0.20871352776885033,0.22766879945993423,0.2100372575223446,0.21968840807676315,0.22349930182099342,0.21894077584147453,0.26134490966796875,0.2772102579474449,0.23893358558416367,0.23480990529060364,0.2591247856616974,0.22985457256436348,0.24279021471738815,0.24207307025790215,0.26131821796298027,0.25674058869481087,0.23182294517755508,0.22334673255681992,0.21730422228574753,0.23891448229551315,0.21937178447842598,0.2053985521197319,0.2402000054717064,0.1807708591222763,0.18378828093409538,0.19773099198937416,0.19326401129364967,0.21089933812618256,0.19528958573937416,0.2071075439453125,0.257373820990324,0.22751997411251068,0.2278594933450222,0.1984443962574005,0.20203398540616035,0.2165527492761612,0.2450103722512722,0.19432451575994492,0.24582674726843834,0.2090453989803791,0.22978973761200905,0.2597312666475773,0.2135620042681694,0.22860334813594818,0.21290205419063568,0.2474822737276554,0.25720977038145065,0.20611191913485527
Saudi Arabia,Iran,-0.21500017121434212,-0.24281307309865952,-0.23561476543545723,-0.2209320105612278,-0.22468187659978867,-0.21758269891142845,-0.2395935393869877,-0.18839645013213158,-0.2691841423511505,-0.2255706936120987,-0.2388610765337944,-0.21698377281427383,-0.232421875,-0.19893644005060196,-0.2112121507525444,-0.2206268534064293,-0.23075104504823685,-0.2304534763097763,-0.20418167486786842,-0.21729279309511185,-0.22207259386777878,-0.22246932983398438,-0.2515907399356365,-0.22159577906131744,-0.23290634155273438,-0.22078322246670723,-0.19237137585878372,-0.22232818603515625,-0.24517825990915298,-0.2882232703268528,-0.24326326698064804,-0.24557875841856003,-0.2259979210793972,-0.23965835943818092,-0.20488359779119492,-0.24392322078347206,-0.2093200571835041,-0.23170467093586922,-0.22330860048532486,-0.23133083432912827,-0.2227020226418972,-0.2246551364660263,-0.21435929834842682,-0.1694183051586151,-0.21465683728456497,-0.25320815294981003,-0.25266264379024506,-0.25276947021484375,-0.2557029761373997,-0.27937697619199753,-0.22312168404459953,-0.25368501618504524,-0.24400708824396133,-0.2620353512465954,-0.24615097790956497,-0.23794177174568176,-0.24515153840184212,-0.23023603111505508,-0.23184964805841446,-0.22986220195889473,-0.24062348902225494,-0.19808197021484375,-0.2281951680779457,-0.25257109105587006,-0.23641587793827057,-0.22560497745871544,-0.20296097546815872,-0.21720505133271217,-0.2377776987850666,-0.22506332769989967,-0.21146392822265625,-0.18989943712949753,-0.2030029073357582,-0.23319623991847038,-0.2346648871898651,-0.21997836232185364,-0.2259521521627903,-0.22911449521780014,-0.24062350392341614,-0.2212105169892311
South Korea,Saudi Arabia,0.05059431493282318,0.05313492566347122,0.06431199610233307,0.040054336190223694,0.0398101732134819,0.03964997082948685,0.06839372962713242,0.018524162471294403,0.0767211765050888,0.0401763916015625,0.046756744384765625,0.04758452624082565,0.05260845273733139,0.038261376321315765,0.04226301610469818,0.043117523193359375,0.06887055188417435,0.05825041979551315,0.0549316331744194,0.06472015380859375,0.0600891038775444,0.07021713256835938,0.04489896446466446,0.05584714561700821,0.029804252088069916,0.03400421142578125,0.053428635001182556,0.0608673095703125,0.04116435348987579,0.05305098742246628,0.043182387948036194,0.08246992528438568,0.06546405702829361,0.06343458592891693,0.0525665208697319,0.06708147376775742,0.058105483651161194,0.05782317370176315,0.0556640625,0.03530120849609375,0.04601287096738815,0.056667305529117584,0.03635791689157486,0.021621689200401306,0.028301216661930084,0.0536651536822319,0.07612227648496628,0.05999755859375,0.06757735460996628,0.05218885838985443,0.041625961661338806,0.06724166870117188,0.05933382362127304,0.06377795338630676,0.04552079737186432,0.05939868837594986,0.04253007471561432,0.051727309823036194,0.045680999755859375,0.04713059216737747,0.055904388427734375,0.041946396231651306,0.05615234375,0.0632781982421875,0.0531768724322319,0.06464006751775742,0.0337829664349556,0.048442840576171875,0.04199600964784622,0.06610871106386185,0.047592148184776306,0.065704345703125,0.049022674560546875,0.05199433118104935,0.07118989527225494,0.06030655652284622,0.05214311182498932,0.07248686254024506,0.06654360145330429,0.07263185828924179
State Alpha,State Beta,0.27411650866270065,0.24438423663377762,0.3150940239429474,0.2465362809598446,0.23053744807839394,0.22281642258167267,0.3043341487646103,0.37104412354528904,0.2864798977971077,0.29366301000118256,0.2541646994650364,0.33590318262577057,0.2301330268383026,0.15014645643532276,0.27829644456505775,0.18163684383034706,0.2567482255399227,0.25845717638731003,0.24320426769554615,0.21849442273378372,0.163185128942132,0.1826528050005436,0.2555785048753023,0.25348661839962006,0.29170799255371094,0.21564483270049095,0.27660942636430264,0.3572521135210991,0.2841059733182192,0.2686042934656143,0.27267841063439846,0.20524213463068008,0.2848071940243244,0.23508073762059212,0.3196736015379429,0.24939727038145065,0.23384094052016735,0.20275779999792576,0.2658042870461941,0.2706375773996115,0.25511929765343666,0.2359923981130123,0.23650358989834785,0.335114523768425,0.2435150295495987,0.33475780487060547,0.28210063092410564,0.2681541461497545,0.19250107184052467,0.26581475883722305,0.28178782016038895,0.2918128967285156,0.28713225573301315,0.28769304417073727,0.26161957904696465,0.1788954809308052,0.2047729678452015,0.17707065865397453,0.35013043880462646,0.3585128728300333,0.22763822227716446,0.36447624117136,0.22537037543952465,0.26048276759684086,0.2377014346420765,0.44875000044703484,0.3535766750574112,0.27970505878329277,0.26866536773741245,0.307514201849699,0.25215911120176315,0.29062746465206146,0.18628313764929771,0.2932930551469326,0.1905670426785946,0.22844693437218666,0.17084500938653946,0.29425056278705597,0.31427763774991035,0.2580414116382599
UK,France,0.08409501612186432,0.08273691684007645,0.050388313829898834,0.09090805798768997,0.08064273744821548,0.09815981239080429,0.0779266282916069,0.10140608251094818,0.10388563573360443,0.08722306787967682,0.09133908897638321,0.09943006932735443,0.092803955078125,0.1003112867474556,0.08136747777462006,0.0923004224896431,0.09738922864198685,0.08288571983575821,0.09482954442501068,0.0925406962633133,0.10126497596502304,0.09208298474550247,0.09140396118164062,0.10655976086854935,0.08292007446289062,0.08258817344903946,0.09158702939748764,0.07933807373046875,0.08356858789920807,0.09488297998905182,0.08339310437440872,0.1271667554974556,0.1221618577837944,0.09782413393259048,0.1074829250574112,0.11796187609434128,0.07294460386037827,0.11820602416992188,0.09806440770626068,0.09270858019590378,0.07822415977716446,0.09140396863222122,0.10570144653320312,0.10667037963867188,0.09904861450195312,0.08687595278024673,0.1039581224322319,0.08605577796697617,0.10854718834161758,0.08628080040216446,0.09614945203065872,0.10425188392400742,0.08599853515625,0.11829375475645065,0.08492659777402878,0.1101074144244194,0.09843061119318008,0.12636182457208633,0.11955642700195312,0.10647962987422943,0.10633852332830429,0.09720607846975327,0.09268568456172943,0.1078491359949112,0.09891130030155182,0.0714721754193306,0.0789642408490181,0.0875244140625,0.06939315050840378,0.08282467722892761,0.10299299657344818,0.11301421374082565,0.11153031885623932,0.10371016710996628,0.11202618479728699,0.09214401990175247,0.10651397705078125,0.10513688623905182,0.0897369310259819,0.12642286717891693
UK,India,-0.1863403394818306,-0.1908264234662056,-0.20809556543827057,-0.19659044966101646,-0.1773987114429474,-0.17227551341056824,-0.1993713155388832,-0.18941877037286758,-0.21666719764471054,-0.20662307739257812,-0.23159027099609375,-0.19759753346443176,-0.1916656717658043,-0.17280195653438568,-0.20116425305604935,-0.16717907786369324,-0.18851089477539062,-0.19649122655391693,-0.15494535118341446,-0.18390657007694244,-0.16318894177675247,-0.19023515284061432,-0.21766280382871628,-0.1811828389763832,-0.18181608617305756,-0.18702314794063568,-0.1890258640050888,-0.20656586438417435,-0.1920166090130806,-0.2148590311408043,-0.21589281409978867,-0.1784668043255806,-0.20036696642637253,-0.2310180515050888,-0.18212506920099258,-0.18982312828302383,-0.19501497596502304,-0.1976470947265625,-0.1842346489429474,-0.21108245849609375,-0.23278044909238815,-0.20829393714666367,-0.19153977930545807,-0.15414810180664062,-0.1868591383099556,-0.21622466295957565,-0.18037410080432892,-0.2165832221508026,-0.18037034571170807,-0.22679521888494492,-0.17903517931699753,-0.19477081298828125,-0.19274138659238815,-0.17711639404296875,-0.2359161451458931,-0.18411636352539062,-0.19820784777402878,-0.13912197947502136,-0.1527252346277237,-0.18559645861387253,-0.2037658840417862,-0.19744107127189636,-0.2104492112994194,-0.19239044934511185,-0.16955186426639557,-0.2029723823070526,-0.18692783266305923,-0.18396759033203125,-0.23308564722537994,-0.1907195821404457,-0.20206454396247864,-0.16573716700077057,-0.19940945506095886,-0.17794419825077057,-0.19199368357658386,-0.16994856297969818,-0.1876373291015625,-0.19379423558712006,-0.20015717297792435,-0.17354204505681992
UK,Nigeria,-0.08513640612363815,-0.07753372192382812,-0.10559845715761185,-0.10147474706172943,-0.09725572913885117,-0.06833267956972122,-0.07668687403202057,-0.07319638133049011,-0.1035003587603569,-0.11202239990234375,-0.11591339111328125,-0.0998077467083931,-0.09597016125917435,-0.06945418566465378,-0.09911726415157318,-0.06645584106445312,-0.07630539685487747,-0.09262464195489883,-0.06414794921875,-0.07373427599668503,-0.06351090222597122,-0.0676879808306694,-0.10135654360055923,-0.06289675086736679,-0.08869553357362747,-0.08201596885919571,-0.09965894371271133,-0.10418703407049179,-0.0776977688074112,-0.10744476318359375,-0.09756852686405182,-0.0648651272058487,-0.09125896543264389,-0.12671280652284622,-0.08915328979492188,-0.07356645166873932,-0.10001373291015625,-0.10754013806581497,-0.07353591173887253,-0.11100384593009949,-0.13654324412345886,-0.11200711131095886,-0.11162567883729935,-0.07607651501893997,-0.08993527293205261,-0.11956404149532318,-0.09597781300544739,-0.10735700279474258,-0.08553312718868256,-0.12679286301136017,-0.08666614443063736,-0.11251072585582733,-0.08776091039180756,-0.06618499010801315,-0.13109973073005676,-0.07523343712091446,-0.082916259765625,-0.03264234960079193,-0.0644836500287056,-0.09580229222774506,-0.09685898572206497,-0.11595918983221054,-0.11410140246152878,-0.0951232835650444,-0.058029159903526306,-0.09956356883049011,-0.11265182495117188,-0.09914779663085938,-0.1405181810259819,-0.1124877855181694,-0.07552719861268997,-0.06664279103279114,-0.08620455116033554,-0.08819583803415298,-0.07382583618164062,-0.08216477185487747,-0.0949973613023758,-0.08490370959043503,-0.10506439208984375,-0.07183456420898438
USA,China,0.16458894684910774,0.17617417126893997,0.14767073094844818,0.14516449719667435,0.15422438457608223,0.1791534349322319,0.17583084106445312,0.13547133281826973,0.14758680015802383,0.12422943860292435,0.14267347007989883,0.12030029296875,0.16222380846738815,0.12673568353056908,0.12913892418146133,0.11592479795217514,0.1530914455652237,0.1539306491613388,0.1272583045065403,0.1602783277630806,0.1673583835363388,0.15109256654977798,0.14006423577666283,0.12796783447265625,0.1335906907916069,0.09889600798487663,0.11963271349668503,0.1455383524298668,0.13965226337313652,0.1349334940314293,0.15821457654237747,0.1637878231704235,0.17296219989657402,0.14852521941065788,0.14796065539121628,0.18051911145448685,0.11057278513908386,0.1426200456917286,0.15396499261260033,0.13681411743164062,0.17309189960360527,0.1235198825597763,0.1649322509765625,0.15546417981386185,0.1476288065314293,0.138759583234787,0.13674163073301315,0.14924239739775658,0.14509201794862747,0.16133499518036842,0.14618301764130592,0.16089627146720886,0.14577479660511017,0.15947340428829193,0.1219482496380806,0.13576505333185196,0.11170956492424011,0.13985442370176315,0.13581087440252304,0.1223640888929367,0.1352691650390625,0.12023544311523438,0.13512799888849258,0.13971326500177383,0.14635471999645233,0.13480378687381744,0.1109771616756916,0.1343231163918972,0.11888505145907402,0.1447906605899334,0.16327668726444244,0.17007068544626236,0.13831712305545807,0.14868167787790298,0.1413879469037056,0.1416778489947319,0.1355285570025444,0.16297530382871628,0.14736559242010117,0.15644454956054688
Zembala,Junwei,-0.18296431005001068,-0.1753540076315403,-0.19174573570489883,-0.14801408350467682,-0.17078017815947533,-0.17223358526825905,-0.1943511925637722,-0.0872497521340847,-0.20629499107599258,-0.21590277925133705,-0.14857292920351028,-0.11579037457704544,-0.15842052921652794,-0.1210021898150444,-0.143497496843338,-0.12070085108280182,-0.1915893703699112,-0.1754111871123314,-0.130859375,-0.21044918149709702,-0.16243743151426315,-0.151912659406662,-0.1453704759478569,-0.18607710301876068,-0.1643371544778347,-0.1415862925350666,-0.17065048217773438,-0.17852285876870155,-0.1822815053164959,-0.19372179359197617,-0.16845322400331497,-0.21477887406945229,-0.16699599847197533,-0.1273336037993431,-0.20806504040956497,-0.20856475830078125,-0.14278410002589226,-0.13759613782167435,-0.19241715595126152,-0.2264251783490181,-0.1413116455078125,-0.1056671068072319,-0.12990162521600723,-0.1107025295495987,-0.10925581306219101,-0.16728400811553001,-0.1835498809814453,-0.3067067563533783,-0.1706237979233265,-0.14377595484256744,-0.12062077224254608,-0.20569324865937233,-0.18991853296756744,-0.16295242309570312,-0.19272613152861595,-0.15657804906368256,-0.13867950439453125,-0.13744356483221054,-0.14421843737363815,-0.13650133460760117,-0.1301994025707245,-0.16402436792850494,-0.2863568849861622,-0.18860627710819244,-0.1645049899816513,-0.17835618928074837,-0.16925428062677383,-0.18297578394412994,-0.21387861669063568,-0.1781463958323002,-0.17215535417199135,-0.14595794677734375,-0.17233087494969368,-0.22701071202754974,-0.1613464429974556,-0.09640124067664146,-0.12884139269590378,-0.22765159606933594,-0.2007293738424778,-0.17511367797851562
Zembala,Kotundi,-0.1767559051513672,-0.21448995172977448,-0.14068603515625,-0.17880628630518913,-0.17829130962491035,-0.17259598523378372,-0.1658172383904457,-0.18248747661709785,-0.21954723075032234,-0.18894577771425247,-0.1515960916876793,-0.2866344451904297,-0.1844305731356144,-0.1893341913819313,-0.22909070923924446,-0.14900920912623405,-0.17721178382635117,-0.223953265696764,-0.1463165134191513,-0.15969085693359375,-0.1710963174700737,-0.2160213105380535,-0.15942000225186348,-0.18407251313328743,-0.17081069946289062,-0.22696400433778763,-0.2735156863927841,-0.23589850589632988,-0.18133162334561348,-0.23188020661473274,-0.20100784301757812,-0.22645952925086021,-0.15927506610751152,-0.3108062706887722,-0.12485650181770325,-0.18098261207342148,-0.16516875848174095,-0.15655137598514557,-0.0941314734518528,-0.19223783537745476,-0.25161076337099075,-0.2429046556353569,-0.20321274548768997,-0.11552811414003372,-0.1418457366526127,-0.24518659710884094,-0.18526746705174446,-0.2223549261689186,-0.2057952918112278,-0.14801763743162155,-0.15171049907803535,-0.19918059930205345,-0.19453047215938568,-0.21962859109044075,-0.21787933632731438,-0.1548120714724064,-0.20672940462827682,-0.23893356323242188,-0.22060392796993256,-0.1926410160958767,-0.1984844096004963,-0.21830366924405098,-0.2376403920352459,-0.21648192405700684,-0.17873000726103783,-0.158767718821764,-0.1943054385483265,-0.16921235993504524,-0.24522309005260468,-0.2749843616038561,-0.1845702826976776,-0.23400308564305305,-0.13199613615870476,-0.1744079925119877,-0.24827195703983307,-0.11136435344815254,-0.3245544321835041,-0.1830139420926571,-0.1791992112994194,-0.1606597900390625
