country_1,country_2,airspace_def_v1,airspace_def_v2,airspace_v1,airspace_v2,airspace_v3,airspace_v4,airspace_v5,baseline,border_def_v1,border_def_v2,border_v1,border_v2,border_v3,border_v4,border_v5,cyber_def_v1,cyber_def_v2,cyber_v1,cyber_v2,cyber_v3,cyber_v4,cyber_v5,espionage_def_v1,espionage_def_v2,espionage_v1,espionage_v2,espionage_v3,espionage_v4,espionage_v5,humanitarian_def_v1,humanitarian_def_v2,humanitarian_v1,humanitarian_v2,humanitarian_v3,humanitarian_v4,humanitarian_v5,internal_affairs_def_v1,internal_affairs_v1,internal_affairs_v2,maritime_def_v1,maritime_def_v2,maritime_v1,maritime_v2,maritime_v3,maritime_v4,maritime_v5,nuclear_def_v1,nuclear_def_v2,nuclear_v1,nuclear_v2,nuclear_v3,nuclear_v4,nuclear_v5,proxy_def_v1,proxy_def_v2,proxy_v1,proxy_v2,proxy_v3,proxy_v4,proxy_v5,sovereignty_def_v1,sovereignty_v1,sovereignty_v2,strike_def_v1,strike_def_v2,strike_v1,strike_v2,strike_v3,strike_v4,strike_v5,tech_war_def_v1,tech_war_v1,tech_war_v2,trade_def_v1,trade_def_v2,trade_v1,trade_v2,trade_v3,trade_v4,trade_v5
Aeloria,Brevnia,-0.004709266126155853,0.0330180749297142,0.053947437554597855,-0.005380643531680107,-0.030805600807070732,0.0007343441247940063,0.017478948459029198,0.1070709228515625,0.028696056455373764,0.04484177567064762,0.005767877213656902,0.053495412692427635,0.0337199829518795,0.048273105174303055,0.018831269815564156,0.06336599588394165,0.08034511096775532,0.05440138652920723,0.07919696345925331,0.06152723170816898,0.040435804054141045,0.08350561000406742,0.024204270914196968,0.046312300488352776,0.020894944667816162,0.0392551701515913,0.02063366211950779,0.048963513225317,0.03780367597937584,0.014617934823036194,0.022438036277890205,0.004373561590909958,0.03618431091308594,0.05173303931951523,0.014263074845075607,0.05186850763857365,0.03638457879424095,0.01777082495391369,0.062128135934472084,0.024496028199791908,0.049592990428209305,0.03494452312588692,0.003601090982556343,0.064521798864007,0.025176985189318657,0.03804394602775574,0.03761669993400574,0.037979152984917164,0.018184682354331017,0.03742029517889023,0.042354533448815346,0.017166143283247948,0.04431911185383797,0.04825781285762787,0.011285785585641861,0.046760568395256996,0.03254511393606663,0.08390808291733265,0.027421988546848297,0.020776769146323204,0.04563328996300697,-0.0382308978587389,0.015138635411858559,0.006216032430529594,0.06489373557269573,0.04701618477702141,-0.023023645393550396,0.006965590640902519,0.00026698876172304153,-0.00022889114916324615,0.0798950083553791,0.05006979592144489,0.06423761323094368,0.04162788763642311,0.06523326598107815,0.06632616370916367,0.044923797249794006,0.061569247394800186,0.04885486140847206,0.06148530729115009
Aeloria,Junwei,0.17695419676601887,0.22256088070571423,0.2562942449003458,0.15905755944550037,0.13955310732126236,0.12110519967973232,0.19589809328317642,0.18841361533850431,0.15737725887447596,0.25321581959724426,0.18861200381070375,0.19999501015990973,0.15976720117032528,0.17078587412834167,0.1836719587445259,0.25264737010002136,0.22125818580389023,0.18709750659763813,0.21017837710678577,0.19639204628765583,0.17816350795328617,0.20963851921260357,0.19430537894368172,0.19242285005748272,0.19798283651471138,0.19688990153372288,0.25660136342048645,0.22666175849735737,0.16197779402136803,0.13525962829589844,0.14024927280843258,0.16693875938653946,0.14559170324355364,0.20444299280643463,0.16625978611409664,0.16693872772157192,0.20909498166292906,0.16889760084450245,0.18477438017725945,0.1946010310202837,0.16493414249271154,0.1867828592658043,0.16011430695652962,0.2092971634119749,0.218374228104949,0.15556904580444098,0.18687245901674032,0.21541595086455345,0.15465732291340828,0.18522446043789387,0.14408297929912806,0.20851517654955387,0.2006892841309309,0.14892580918967724,0.19297788850963116,0.19548227824270725,0.18595881760120392,0.1980361845344305,0.19215201027691364,0.16436759755015373,0.18231399171054363,0.19189069792628288,0.1802749466150999,0.11716270819306374,0.16594507731497288,0.2303466871380806,0.1988544538617134,0.18282122630625963,0.22207835037261248,0.22681043576449156,0.188957242295146,0.18310166895389557,0.25805473513901234,0.20989992283284664,0.2122592981904745,0.17721369117498398,0.1807841956615448,0.18599513173103333,0.23767854645848274,0.22367479652166367
Aeloria,Zembala,0.14808458276093006,0.2041511256247759,0.24091529473662376,0.13087466545403004,0.1198578029870987,0.13856506161391735,0.20159344747662544,0.2052288018167019,0.1519889496266842,0.18342216312885284,0.12702556978911161,0.16006472148001194,0.17100712284445763,0.16866687312722206,0.14925762452185154,0.21959304437041283,0.20665926113724709,0.1932296771556139,0.214136166498065,0.18234640173614025,0.1822852659970522,0.21022417955100536,0.1946925800293684,0.1960449032485485,0.1800765823572874,0.19281194545328617,0.17123604752123356,0.22010421194136143,0.18409913778305054,0.1650486309081316,0.18590358924120665,0.18830298446118832,0.16322710178792477,0.17920498922467232,0.1905517876148224,0.20085905119776726,0.19333081133663654,0.1358738411217928,0.1969661135226488,0.19023513793945312,0.17296032793819904,0.17329021356999874,0.155181884765625,0.16802213713526726,0.184423441067338,0.16354561783373356,0.16742712818086147,0.18087198585271835,0.15788080543279648,0.17459113150835037,0.13080215640366077,0.16119961813092232,0.17261320911347866,0.1798019539564848,0.16885370761156082,0.20672604255378246,0.18139074370265007,0.21973988972604275,0.18571466393768787,0.16502762027084827,0.20415311306715012,0.1055794283747673,0.1516761425882578,0.1567917112261057,0.18865389935672283,0.1932239169254899,0.14624212123453617,0.16027451120316982,0.16377263236790895,0.15716742724180222,0.1919021513313055,0.1436920240521431,0.16190148331224918,0.18714717589318752,0.18120379745960236,0.17168800719082355,0.17961115017533302,0.19925115443766117,0.21988681890070438,0.18449977412819862
Country A,Country B,0.014354702085256577,-0.03901294991374016,0.05279351398348808,0.019781118258833885,0.040420494973659515,0.0028038378804922104,0.05897711589932442,0.07301711943000555,0.0728912241756916,0.03600124083459377,0.025297114625573158,0.01820562593638897,0.059921277686953545,0.015548678115010262,0.019475968554615974,0.03179167024791241,0.033105919137597084,0.011678680777549744,0.06052019260823727,0.07032583467662334,0.018451722338795662,0.05689237639307976,0.05133628286421299,0.04216579720377922,0.01688195765018463,0.04272456280887127,-0.0068092551082372665,-0.009803777560591698,0.04709812067449093,0.054479580372571945,0.0551147386431694,-0.0022392012178897858,0.03194431588053703,0.05110366828739643,0.07486345805227757,0.04950329288840294,0.01487739197909832,-0.02600863389670849,0.09051708690822124,0.08254619874060154,0.08049771934747696,0.04750440642237663,0.04077338986098766,0.013130199164152145,0.05270959809422493,0.05043984763324261,0.027891114354133606,0.004293449223041534,-0.0012435223907232285,0.062458064407110214,-0.0048560816794633865,-0.04203413985669613,-0.02365686185657978,0.05836871080100536,0.03844066523015499,0.029447510838508606,0.03097531571984291,0.08090397715568542,0.07242205366492271,0.013866415247321129,0.02751350589096546,-0.056192390620708466,0.048038529232144356,0.05107496492564678,0.051576582714915276,0.006187437102198601,-0.05796434544026852,0.03628922440111637,0.0023231226950883865,-0.02499385178089142,0.09125138819217682,0.05377389304339886,0.010871866717934608,0.0589026864618063,0.04556841403245926,0.027269454672932625,0.06418986804783344,0.06550410389900208,0.06500052288174629,0.08805460669100285
Country X,Country Y,-0.05428124591708183,0.01219179481267929,-0.0027923956513404846,-0.018152255564928055,-0.037572868168354034,-0.01116369292140007,0.020933136343955994,0.017898516729474068,-0.009733207523822784,0.017366409301757812,-0.02886394038796425,-0.009845733642578125,0.021171581000089645,0.007892601191997528,-0.008386649191379547,0.008100517094135284,-0.012842193245887756,-0.005462624132633209,0.012708645313978195,-0.03088758885860443,0.004283882677555084,0.01412772387266159,0.018381133675575256,-0.010667815804481506,0.009088519960641861,0.018833167850971222,-0.00878143310546875,0.04068184271454811,0.02841757982969284,0.04563329741358757,0.0008563995361328125,0.0024395212531089783,0.0020599588751792908,0.02561376988887787,0.008754726499319077,-0.013124454766511917,-0.014749541878700256,-0.014657989144325256,0.014993682503700256,0.016723621636629105,0.030855175107717514,0.023817025125026703,0.020126324146986008,-0.01060103252530098,0.028371792286634445,0.00964544340968132,0.006481163203716278,0.011421184986829758,0.0075283050537109375,0.013124443590641022,-0.016904816031455994,-0.012146007269620895,-0.027875881642103195,0.02772904932498932,-0.007131557911634445,0.012298546731472015,0.03763194754719734,0.03763391450047493,0.009788468480110168,0.037040695548057556,0.01556209847331047,-0.03383447974920273,0.018846530467271805,0.01819610595703125,-0.02717399224638939,-0.0395641028881073,-0.03334236145019531,-0.025482192635536194,0.0018519982695579529,-0.023899096995592117,-0.023555774241685867,-0.020524967461824417,-0.029699351638555527,0.008068062365055084,-0.0005760453641414642,-0.039377231150865555,-0.002481471747159958,-0.004961010068655014,-0.0073413848876953125,0.0022335276007652283
Germany,Japan,-0.1520061381161213,-0.16353414952754974,-0.17052457481622696,-0.14455980993807316,-0.14876563288271427,-0.15522574074566364,-0.15398783050477505,-0.12203593272715807,-0.17266461439430714,-0.16968347877264023,-0.1392040066421032,-0.14857670105993748,-0.13307958841323853,-0.15058513917028904,-0.1567325945943594,-0.13748933374881744,-0.1657276190817356,-0.15924843214452267,-0.13328555971384048,-0.15342524461448193,-0.14662555791437626,-0.16326136514544487,-0.15627281367778778,-0.1587581094354391,-0.13986395485699177,-0.1485634185373783,-0.14879413321614265,-0.15328404307365417,-0.14733505062758923,-0.16555792279541492,-0.1950778942555189,-0.14683914557099342,-0.12553028203547,-0.14829056337475777,-0.11441044881939888,-0.16811559721827507,-0.11817357316613197,-0.10916141979396343,-0.1337852142751217,-0.17786408588290215,-0.15929597802460194,-0.1615428812801838,-0.1639766413718462,-0.11830707266926765,-0.16719242371618748,-0.18041412346065044,-0.15111925266683102,-0.1339283250272274,-0.14825249463319778,-0.11782268062233925,-0.12719536758959293,-0.13948247209191322,-0.15730664506554604,-0.1586799994111061,-0.13693426735699177,-0.17190934903919697,-0.16741185076534748,-0.14787301421165466,-0.14353179559111595,-0.13982576876878738,-0.1483555231243372,-0.14930536784231663,-0.11405183374881744,-0.1529903430491686,-0.17129329219460487,-0.1211776752024889,-0.1403293963521719,-0.11684802360832691,-0.1516590565443039,-0.15784641727805138,-0.14863582514226437,-0.14303019270300865,-0.14259528554975986,-0.15238570049405098,-0.15346144139766693,-0.10554118826985359,-0.1383953019976616,-0.16051100753247738,-0.1394367516040802,-0.11602399498224258
Germany,Russia,0.07096479646861553,0.06438638269901276,0.07604219391942024,0.07123753055930138,0.041288334876298904,0.03510475717484951,0.0701141320168972,0.08603671379387379,0.040130605921149254,0.09348106570541859,0.07409480772912502,0.045045824721455574,0.09638210013508797,0.0697479210793972,0.07209969870746136,0.05722043290734291,0.05761526897549629,0.059831563383340836,0.04668998159468174,0.053777702152729034,0.06011962890625,0.053859710693359375,0.07166479900479317,0.06191640347242355,0.056486114859580994,0.04613305628299713,0.0427474956959486,0.06171032041311264,0.06533431075513363,0.05685615912079811,0.020509760826826096,0.08048446103930473,0.06684880144894123,0.0617752093821764,0.07766719348728657,0.03395464830100536,0.07098005712032318,0.08675191551446915,0.0894374381750822,0.06057549826800823,0.08123212680220604,0.060384808108210564,0.04497150331735611,0.08525466173887253,0.0498714130371809,0.05287552438676357,0.039266571402549744,0.056503256782889366,0.053957004100084305,0.07353596016764641,0.05439756065607071,0.06754297204315662,0.04491234943270683,0.06187816523015499,0.07508278265595436,0.041847238317131996,0.0385131910443306,0.043560005724430084,0.05567738227546215,0.06242186762392521,0.0831260196864605,0.07383156195282936,0.10504149459302425,0.06283379718661308,0.0533294714987278,0.04317282326519489,0.07243542186915874,0.0422096773982048,0.04753873869776726,0.03644748590886593,0.08752057701349258,0.06247708201408386,0.08745000697672367,0.06392861716449261,0.08321759849786758,0.10070228762924671,0.08831221237778664,0.07349391467869282,0.08952336758375168,0.09897229634225368
Germany,South Korea,-0.20342065207660198,-0.16280748508870602,-0.19953538477420807,-0.1662063654512167,-0.18284033238887787,-0.19333458878099918,-0.15372849628329277,-0.1199817219749093,-0.18412976525723934,-0.16464423947036266,-0.17971042729914188,-0.14015199802815914,-0.1571598071604967,-0.1385994292795658,-0.14427566155791283,-0.1687755361199379,-0.18773649260401726,-0.17501823976635933,-0.1977940034121275,-0.17937281727790833,-0.18812373653054237,-0.19454004056751728,-0.17117313481867313,-0.16473004408180714,-0.1841602623462677,-0.14052967354655266,-0.14241603203117847,-0.15662001259624958,-0.17379566095769405,-0.1869811676442623,-0.2108516488224268,-0.16885756701231003,-0.1834869123995304,-0.15750128775835037,-0.17335125990211964,-0.20990555174648762,-0.1513671576976776,-0.16948512569069862,-0.1772593967616558,-0.16477969102561474,-0.1703872811049223,-0.14658357203006744,-0.15858462266623974,-0.14403533190488815,-0.159561138600111,-0.18967823684215546,-0.19872482120990753,-0.17377279326319695,-0.19524954818189144,-0.19559290260076523,-0.19685171358287334,-0.13434982486069202,-0.1487483847886324,-0.20339014381170273,-0.18530466966331005,-0.18962853960692883,-0.18732066452503204,-0.16826248355209827,-0.18494797870516777,-0.16836928576231003,-0.16067691892385483,-0.13189319521188736,-0.13559339195489883,-0.17374984361231327,-0.22338291630148888,-0.17060465924441814,-0.17323682829737663,-0.1287803128361702,-0.1846409011632204,-0.1891040224581957,-0.18401144072413445,-0.22175406105816364,-0.16550828889012337,-0.19205475598573685,-0.13240241818130016,-0.150566091760993,-0.183837890625,-0.1655921619385481,-0.14766503497958183,-0.1411686073988676
India,Russia,0.21404649131000042,0.21824452839791775,0.23148725368082523,0.2056407518684864,0.18167118728160858,0.1656151097267866,0.19958497025072575,0.22539707086980343,0.21453669108450413,0.25203894823789597,0.1955718658864498,0.19857601635158062,0.23742102831602097,0.20309829339385033,0.20306206494569778,0.18836592137813568,0.2048130426555872,0.21483613178133965,0.16950410418212414,0.1952361948788166,0.18544195778667927,0.17759894207119942,0.20861058123409748,0.21678162552416325,0.17773439548909664,0.19009210541844368,0.21014591678977013,0.22208219207823277,0.2131615113466978,0.22592166252434254,0.20689393021166325,0.23099520429968834,0.21551896631717682,0.20658105053007603,0.21667293645441532,0.21757503598928452,0.20375441946089268,0.20457643270492554,0.21791267581284046,0.22505572997033596,0.2557678818702698,0.2240791767835617,0.19222261756658554,0.19080737978219986,0.19386106729507446,0.24516681022942066,0.17754934541881084,0.19937897101044655,0.20080183632671833,0.21989061869680882,0.17993354424834251,0.207059808075428,0.17976766265928745,0.21708297729492188,0.19792365096509457,0.1940746270120144,0.19145012274384499,0.17055128328502178,0.1882362011820078,0.19926638901233673,0.24861337058246136,0.20719713903963566,0.2313308883458376,0.20955088920891285,0.20937729813158512,0.15162663161754608,0.20845409110188484,0.1615467257797718,0.19297790713608265,0.18768880888819695,0.26508520916104317,0.21495631523430347,0.21665764227509499,0.2256221752613783,0.21963880583643913,0.23665625974535942,0.2524662036448717,0.2387847639620304,0.22383883595466614,0.24526402540504932
Japan,China,0.08182910457253456,0.07992170937359333,0.07798192836344242,0.09218592755496502,0.07497791014611721,0.09287070482969284,0.06807325780391693,0.030874179676175117,0.06929589807987213,0.08507725410163403,0.0843106135725975,0.10047726891934872,0.07395941764116287,0.10272791795432568,0.11051179841160774,0.0702667161822319,0.07322503067553043,0.08152008056640625,0.04663652740418911,0.07064242288470268,0.06156156398355961,0.07234189659357071,0.05189129151403904,0.06268499419093132,0.08256526291370392,0.050853706896305084,0.04613877460360527,0.07266047038137913,0.07750699110329151,0.06532859802246094,0.09353442676365376,0.05456540361046791,0.049224814400076866,0.0552463848143816,0.07829664647579193,0.06984336487948895,0.0645466223359108,0.048025136813521385,0.03609278425574303,0.11802869290113449,0.07446668855845928,0.08145712688565254,0.09626956284046173,0.07851597294211388,0.08877940662205219,0.08117675967514515,0.05932040885090828,0.07725334726274014,0.06483074650168419,0.02783774398267269,0.050565704703330994,0.07465552166104317,0.07801241800189018,0.05842016823589802,0.04586411453783512,0.06496048718690872,0.06569484435021877,0.08409877307713032,0.05917737819254398,0.057008782401680946,0.0738754291087389,0.08777997642755508,0.06965827755630016,0.04873277246952057,0.06913376413285732,0.07082946598529816,0.08912276662886143,0.07769015803933144,0.10060124285519123,0.07314296811819077,0.04735753312706947,0.04568098857998848,0.08592798560857773,0.050966234877705574,0.0826034378260374,0.04683495871722698,0.06121250241994858,0.0656318012624979,0.04520417936146259,0.056562390178442
Junwei,Khemara,-0.05109787359833717,0.00722501240670681,-0.03846929408609867,-0.066099151968956,-0.05449677165597677,-0.031539950519800186,-0.011083563789725304,-0.01911165378987789,-0.004755022935569286,-0.04762840364128351,-0.055637385696172714,-0.03647992014884949,0.02651020884513855,-0.02768898755311966,-0.029476147145032883,-0.04869458265602589,0.0008144360035657883,0.0076637472957372665,-0.0006103310734033585,-0.0002670241519808769,0.0026302803307771683,0.02343558706343174,-0.0010566944256424904,-0.009908674284815788,-0.04730985872447491,-0.011964865028858185,-0.09964943863451481,-0.03891563042998314,0.0022659003734588623,0.01598166674375534,0.028543539345264435,0.028677012771368027,-8.589588105678558e-05,-0.02512739598751068,-0.011953325010836124,0.03248021937906742,-0.01625255960971117,-0.05045316368341446,0.005779287777841091,-0.04926110338419676,0.0008449843153357506,-0.022983498871326447,-0.015790939331054688,-0.09022719413042068,-0.06563574448227882,-0.004697801545262337,-0.033128777518868446,-0.03622245043516159,-0.007377658039331436,-0.01975438091903925,-0.007312864065170288,-0.05183793231844902,0.009134290739893913,0.022727944888174534,-0.013826402835547924,0.04317092150449753,0.012412933632731438,0.002231612801551819,-0.00569914560765028,-0.0032768528908491135,0.03198624029755592,-0.09982299990952015,-0.030626295134425163,0.024974812753498554,0.01780504547059536,-0.026756364852190018,-0.06424709875136614,-0.06052399333566427,-0.08493424393236637,-0.0757684726268053,0.009061787277460098,-0.048183392733335495,-0.07988360710442066,-0.0328654982149601,-0.026514040306210518,0.002824796363711357,0.01490972749888897,0.007295653223991394,-0.004245752468705177,-0.02943231724202633
Nation 1,Nation 2,0.20322423428297043,0.17479706555604935,0.23991012945771217,0.21260832995176315,0.19546504691243172,0.18795966356992722,0.22181321680545807,0.20452119410037994,0.20872877538204193,0.15691565349698067,0.16453076153993607,0.1191701740026474,0.15259358659386635,0.12843701615929604,0.12159537523984909,0.15419388562440872,0.11594577878713608,0.14276500791311264,0.13700105622410774,0.169906634837389,0.13653375580906868,0.16165543347597122,0.23910710960626602,0.18549727275967598,0.20284459739923477,0.20157242193818092,0.14449497312307358,0.2004261128604412,0.2152671366930008,0.21118739247322083,0.20673560351133347,0.20485496520996094,0.2264576256275177,0.22562598809599876,0.2625560723245144,0.1947612762451172,0.18777846917510033,0.18219565600156784,0.24725532159209251,0.1840381845831871,0.24096102267503738,0.14764021337032318,0.18868636712431908,0.1440296247601509,0.18187713623046875,0.1945018768310547,0.17884636297821999,0.15525150671601295,0.164291400462389,0.2267037034034729,0.2111053317785263,0.12840651348233223,0.10074805468320847,0.23333359509706497,0.19618415459990501,0.18601609021425247,0.16207123547792435,0.15155981108546257,0.17838288471102715,0.17243197560310364,0.18051718920469284,0.11373517662286758,0.23448370024561882,0.21672632545232773,0.19629671052098274,0.1056518629193306,0.11771773919463158,0.12411883473396301,0.16031647846102715,0.12327578663825989,0.20637894421815872,0.18088722601532936,0.1609821319580078,0.2153758518397808,0.1761341094970703,0.1630687527358532,0.1774902418255806,0.1782531999051571,0.19577407836914062,0.1739310920238495
Saudi Arabia,Iran,0.07276346161961555,0.022407516837120056,0.04424475319683552,0.07185171358287334,0.07331090793013573,0.07059099525213242,0.05980877764523029,0.06291581504046917,0.049386994913220406,0.0475215669721365,0.07237816043198109,0.07666395045816898,0.03606220334768295,0.04083634540438652,0.053297009319067,0.05364230275154114,0.031246243044734,0.03126143291592598,0.04451369680464268,0.036907171830534935,0.04870796762406826,0.04497336223721504,0.03232385963201523,0.06901177391409874,0.07059483230113983,0.05047411844134331,0.06330295093357563,0.06762506254017353,0.05934521183371544,0.050023967400193214,0.05187416262924671,0.03633500821888447,0.02119639702141285,0.04867738299071789,0.07321744039654732,0.025075949728488922,0.07136338576674461,0.055191051214933395,0.08368109166622162,0.051509834825992584,0.035310737788677216,0.06910132430493832,0.06189918704330921,0.0914001539349556,0.07117465697228909,0.02703666500747204,0.020126374438405037,0.031990017741918564,0.034858718514442444,0.019933732226490974,0.04216766729950905,0.028530100360512733,0.0028267372399568558,0.03953167609870434,0.03410911001265049,0.03149991109967232,0.026334738358855247,0.07432749681174755,0.06294439733028412,0.0413837693631649,0.036897629499435425,0.03650091774761677,0.0776939895004034,0.02476309984922409,0.0431823655962944,0.04583354666829109,0.047983139753341675,0.08164973743259907,0.04478641599416733,0.019779188558459282,0.05777358077466488,0.05797382444143295,0.04722975939512253,0.04494664445519447,0.04548459127545357,0.0692291334271431,0.04534725286066532,0.030744539573788643,0.04338651895523071,0.04928401857614517
South Korea,Saudi Arabia,0.13895227015018463,0.10788535326719284,0.11145213060081005,0.12583541497588158,0.11751177720725536,0.12142180651426315,0.09257694892585278,0.07873539440333843,0.0975017361342907,0.10497663915157318,0.12377167493104935,0.07685663923621178,0.1500950064510107,0.0942973792552948,0.09993929602205753,0.12586216442286968,0.13593679293990135,0.13250350952148438,0.12619590386748314,0.11418725177645683,0.11117366887629032,0.1510716024786234,0.10105324909090996,0.07541653327643871,0.10703087039291859,0.062036510556936264,0.05801771767437458,0.06298264674842358,0.11737823486328125,0.09915922954678535,0.10407629236578941,0.09796334989368916,0.10188675299286842,0.1145095657557249,0.10540388152003288,0.14640625938773155,0.08259004913270473,0.130960488691926,0.09295465238392353,0.081245431676507,0.11605637706816196,0.081367501989007,0.08750538341701031,0.10976605489850044,0.09135053306818008,0.1243515145033598,0.13274002820253372,0.09430117718875408,0.12541385740041733,0.1535339578986168,0.1672267820686102,0.10750201903283596,0.10297400690615177,0.13510895892977715,0.1168517991900444,0.108306884765625,0.10820195078849792,0.10078810155391693,0.11193087510764599,0.13063436187803745,0.117124542593956,0.07601545378565788,0.07289886102080345,0.12290184572339058,0.12310409359633923,0.12888334318995476,0.12792585417628288,0.06408502906560898,0.12310979701578617,0.14637185633182526,0.1255379095673561,0.14063824899494648,0.12787249125540257,0.11347386613488197,0.11696432903409004,0.13064195401966572,0.13232420571148396,0.1288795191794634,0.09323508851230145,0.12848284468054771
State Alpha,State Beta,0.1383971879258752,0.16671941243112087,0.18757441453635693,0.15180202014744282,0.13578028418123722,0.12571902014315128,0.13259703665971756,0.11129569355398417,0.14981654845178127,0.20434571336954832,0.15014839358627796,0.15273288264870644,0.1640548575669527,0.09753040783107281,0.144075445830822,0.11022571474313736,0.1486816145479679,0.16890529170632362,0.10335540398955345,0.13020900078117847,0.12222855910658836,0.14100451953709126,0.13270950224250555,0.11470414511859417,0.13785360753536224,0.13061144948005676,0.12290955521166325,0.15756040439009666,0.12466242164373398,0.11478609032928944,0.16634370479732752,0.12870222330093384,0.11057853046804667,0.12390519864857197,0.18539051618427038,0.12605664692819118,0.11992458067834377,0.1009578350931406,0.13486676011234522,0.13777737878262997,0.16230012755841017,0.1137027908116579,0.1249732282012701,0.1276931669563055,0.12051012925803661,0.11999510042369366,0.15299419779330492,0.19110301695764065,0.14859193190932274,0.12725064903497696,0.13387487549334764,0.17069055326282978,0.16217235662043095,0.12949177343398333,0.13454622216522694,0.15536881610751152,0.175336804240942,0.13996887393295765,0.16217427887022495,0.12833216041326523,0.14951134845614433,0.10914615355432034,0.15688703674823046,0.13993643503636122,0.1546001797541976,0.15789226070046425,0.15943909157067537,0.13392453640699387,0.15752600505948067,0.15817832201719284,0.1613025963306427,0.13308338448405266,0.14973639510571957,0.16260148119181395,0.14983943477272987,0.12602805718779564,0.18857197277247906,0.18727872893214226,0.15617183782160282,0.14933007769286633
UK,France,-0.021137237548828125,0.018989520147442818,-0.005271930247545242,-0.000864025205373764,-0.024764979258179665,-0.01150328479707241,0.0022450238466262817,-0.00032232142984867096,-0.03410342521965504,-0.05460164695978165,-0.04126547463238239,0.007371904328465462,0.00601579062640667,-0.010026950389146805,-0.049785640090703964,0.01363557018339634,0.005186093971133232,0.007900258526206017,-0.02039717324078083,-0.03331187181174755,-0.02122499793767929,-0.022212989628314972,-0.0308437030762434,0.0213298499584198,-0.0030231736600399017,-0.011932376772165298,-0.011056892573833466,0.007011419162154198,-0.015317888930439949,0.00988200306892395,-0.056119903922080994,-0.026971876621246338,-0.018070219084620476,0.008676484227180481,-0.05511091277003288,-0.021263079717755318,0.018674863502383232,0.012449247762560844,-0.021852465346455574,-0.01765052042901516,-0.015178678557276726,0.011814046651124954,-0.017522811889648438,0.013963699340820312,-0.003864254802465439,0.017051666975021362,-0.0369834303855896,-0.08148004487156868,-0.023040838539600372,-0.0057411398738622665,-0.028001857921481133,-0.03911781124770641,-0.019958490505814552,-0.0036793574690818787,-0.030714021995663643,-0.047250719740986824,-0.019346270710229874,0.009815176948904991,-0.01851462759077549,-0.013956129550933838,-0.01916312985122204,-0.018772171810269356,-0.06801420263946056,0.0035248007625341415,0.0007400624454021454,-0.06620601378381252,-0.029258674010634422,-0.04097939841449261,-0.05394168570637703,-0.010236697271466255,-0.0020866356790065765,0.006456382572650909,-0.0024279821664094925,-0.025869395583868027,0.03867536783218384,0.021875349804759026,-0.0093802809715271,-0.012502681463956833,-0.011230457574129105,0.039691926911473274
UK,India,-0.07630917057394981,-0.047622740268707275,-0.08063885569572449,-0.06122780404984951,-0.0889377761632204,-0.07920833490788937,-0.06998440623283386,-0.08420752175152302,-0.09127427078783512,-0.07033920288085938,-0.04549979791045189,-0.011714866384863853,-0.02933698147535324,-0.0368785634636879,-0.05540653504431248,-0.040683746337890625,-0.04777910001575947,-0.051757754758000374,-0.05769345164299011,-0.07635115459561348,-0.061674097552895546,-0.03731919266283512,-0.07989693805575371,-0.022323640063405037,-0.04969022609293461,-0.054069509729743004,-0.0414676982909441,-0.05026819184422493,-0.07536312192678452,-0.0914439968764782,-0.10494804382324219,-0.10962296463549137,-0.09953495487570763,-0.038516974076628685,-0.0783748421818018,-0.09006305411458015,-0.016069402918219566,-0.032278070226311684,-0.05527496710419655,-0.09807013534009457,-0.0797042790800333,-0.04506685398519039,-0.06221957691013813,-0.011667240411043167,-0.0655251070857048,-0.07092664018273354,-0.09416965395212173,-0.09093669056892395,-0.0892677791416645,-0.08945275098085403,-0.08403969742357731,-0.07361217401921749,-0.04202840104699135,-0.08190729469060898,-0.04523850418627262,-0.09709925204515457,-0.07320783473551273,-0.02269749529659748,-0.04577256180346012,-0.04419521056115627,-0.056222936138510704,-0.02788165770471096,-0.0616646334528923,-0.05719182640314102,-0.07268527708947659,-0.0726146399974823,-0.05520437844097614,-0.04849805869162083,-0.06425855308771133,-0.058807387948036194,-0.055860595777630806,-0.04533955082297325,-0.019195547327399254,-0.09601018019020557,0.005781145766377449,-0.022054653614759445,-0.0656470786780119,-0.05971531756222248,-0.03488161787390709,-0.005832647904753685
UK,Nigeria,0.02069280669093132,0.044462161138653755,0.03259466961026192,0.033836398273706436,0.013965599238872528,0.008531596511602402,0.03628159500658512,0.0654277577996254,0.01531791128218174,0.019905073568224907,0.006513576954603195,0.06282804161310196,0.08164412155747414,0.05256843939423561,-0.0008182786405086517,0.04859351925551891,0.0200558640062809,0.03512382321059704,0.01319124549627304,-0.003459930419921875,-0.0009365193545818329,0.010883303359150887,0.013301827013492584,0.05548663064837456,0.04538535885512829,0.032699575647711754,0.036848077550530434,0.06315422989428043,0.03775595687329769,0.019279561936855316,-0.010496163740754128,0.016754215583205223,0.0036678779870271683,0.04843137599527836,0.013542167842388153,-0.0014954153448343277,0.06759834103286266,0.04033471271395683,0.040000926703214645,0.01288226805627346,0.0350875910371542,0.06967159546911716,0.02865602634847164,0.07439801469445229,0.027751918882131577,0.046628933399915695,0.0004996657371520996,-0.023107534274458885,0.006797729060053825,0.021259315311908722,0.0035247784107923508,0.018035877496004105,0.010614421218633652,0.02585984207689762,0.038148850202560425,-0.0030670054256916046,0.01693725399672985,0.05242152139544487,0.037855153903365135,0.03876879811286926,0.05556297488510609,0.027208292856812477,0.02088729850947857,0.025426896288990974,0.012927988544106483,0.002395613119006157,0.009025530889630318,0.03618246503174305,-0.013582238927483559,0.0012664515525102615,0.006744390353560448,0.006650933995842934,0.03604889661073685,-0.00949668139219284,0.06462099961936474,0.05211448296904564,0.013771111145615578,0.022169068455696106,0.05847551301121712,0.07892225868999958
USA,China,0.01938818022608757,0.03630254790186882,0.03393173590302467,-0.001123432070016861,-0.004165681079030037,-0.006181655451655388,0.008117666468024254,0.03276448417454958,-0.009961990639567375,0.015926366671919823,-0.005264235660433769,0.05900000035762787,0.02374075911939144,0.0397720392793417,0.03790469653904438,0.0336971040815115,0.01657300814986229,0.02061653509736061,-0.017341630533337593,-0.011747360229492188,-0.003957744687795639,0.024686815217137337,-0.018413539975881577,0.027542131021618843,0.046594612300395966,0.014736169949173927,-0.022102344781160355,0.01717188209295273,0.02946087345480919,-0.007276557385921478,0.013099633157253265,0.011644408106803894,-0.00943375937640667,-0.0072822365909814835,-0.009676001965999603,-0.005735389888286591,0.02889248915016651,0.003242436796426773,0.024377873167395592,0.0331802424043417,0.026783034205436707,0.021146753802895546,0.02652355469763279,0.010635308921337128,0.038827890530228615,0.02948182262480259,-0.012660976499319077,-0.05085371807217598,-0.006721470504999161,-0.006343839690089226,-0.02152063325047493,-0.032590802758932114,-0.008029898628592491,-0.003341739997267723,0.002159103751182556,-0.01063350960612297,-0.00913051888346672,0.03127476014196873,-0.007631352171301842,-0.02095603011548519,0.029769906774163246,0.02287294901907444,-0.020076725631952286,-0.026336591690778732,0.033977534621953964,-0.002817215397953987,-0.001295141875743866,0.011694001033902168,0.0029849596321582794,-0.003324514254927635,0.02084728516638279,0.010145196691155434,0.017303526401519775,-0.020280854776501656,0.04318617843091488,0.034360818564891815,0.004711156710982323,0.006109220907092094,0.0016861017793416977,0.022504813969135284
Zembala,Junwei,0.0007114466279745102,-0.02170940861105919,-0.02071758173406124,0.006576504558324814,-0.014793427661061287,-0.031181342899799347,-0.02177051268517971,-0.03602980449795723,-0.030715935863554478,0.025970392860472202,0.0194606464356184,0.0005512218922376633,-0.03829197399318218,-0.01735496334731579,-0.013984686695039272,0.023715974763035774,-0.02894594334065914,-0.04036520980298519,-0.023075122386217117,-0.020057683810591698,-0.03135109506547451,-0.03308670409023762,-0.019935600459575653,-0.024814646691083908,-0.0010204464197158813,-0.014390887692570686,0.054828666150569916,-0.030115094035863876,-0.03363795392215252,-0.03362463414669037,-0.06987575720995665,-0.045539867132902145,-0.03474424406886101,-0.00024416483938694,-0.06501384172588587,-0.06636053137481213,-0.015708938241004944,0.010799376294016838,-0.04103470407426357,-0.019245216622948647,-0.03594785090535879,-0.007043831050395966,-0.017755530774593353,0.03129578195512295,0.011516539379954338,-0.03953552804887295,-0.00760268047451973,-0.012788712047040462,-0.02887914329767227,-0.01986692100763321,-0.016874387860298157,0.011810319498181343,-0.026441614143550396,-0.04914854001253843,-0.007381443865597248,-0.05566978361457586,-0.025993354618549347,-0.03285412676632404,-0.021299391984939575,-0.031166084110736847,-0.059402452781796455,0.04239275865256786,-0.005477904342114925,-0.05405229702591896,-0.04907421860843897,0.010820435360074043,0.012103987857699394,-0.0010376088321208954,0.016641651280224323,0.030059867538511753,-0.03140258975327015,0.016796184703707695,0.05214694142341614,-0.0014858338981866837,-0.008459087461233139,-0.02171134762465954,-0.03381730616092682,-0.04775046370923519,-0.02587697096168995,0.00837133452296257
Zembala,Kotundi,0.020921679213643074,0.04460912011563778,0.007015196606516838,0.021171562373638153,0.013296086341142654,0.018699636682868004,-0.0018081627786159515,-0.006679534912109375,0.03506087884306908,0.06834214087575674,0.05649567861109972,0.0609284033998847,0.037204744294285774,0.03349302336573601,0.048576355911791325,0.0010261740535497665,0.024570461362600327,0.024978596717119217,0.027952225878834724,0.03236392140388489,0.018768351525068283,-0.004157980903983116,0.0049629174172878265,0.0009632240980863571,-0.0009307563304901123,0.008054764941334724,0.04841231182217598,0.01625448651611805,0.011754941195249557,0.020894937217235565,0.03047182969748974,0.044116975739598274,0.049083735793828964,0.035089525394141674,0.004568133503198624,0.0223369337618351,-0.015934014692902565,0.013473547995090485,0.02313610538840294,0.024404490366578102,0.03677937388420105,0.024774499237537384,0.038145026192069054,0.0278224628418684,0.03034401871263981,0.04179954994469881,0.047697050496935844,0.03754042740911245,0.039667144417762756,0.012212821282446384,0.046102565713226795,0.05530928447842598,0.06628419738262892,0.027406643144786358,0.019020098261535168,0.03724293410778046,0.0445213858038187,0.010324487462639809,0.03191373497247696,0.033182110637426376,0.036663114093244076,0.055736616253852844,0.03573983442038298,0.02103609498590231,0.03581812605261803,0.058467804454267025,0.039915082044899464,0.04694368038326502,0.04250910319387913,0.057247198186814785,0.012157520279288292,0.02698707953095436,0.05108263250440359,0.01411442831158638,0.03995513543486595,0.0391444880515337,0.010101305320858955,0.007192626595497131,0.012834535911679268,0.034204453229904175
