country_1,country_2,airspace_def_v1,airspace_def_v2,airspace_v1,airspace_v2,airspace_v3,airspace_v4,airspace_v5,baseline,border_def_v1,border_def_v2,border_v1,border_v2,border_v3,border_v4,border_v5,cyber_def_v1,cyber_def_v2,cyber_v1,cyber_v2,cyber_v3,cyber_v4,cyber_v5,espionage_def_v1,espionage_def_v2,espionage_v1,espionage_v2,espionage_v3,espionage_v4,espionage_v5,humanitarian_def_v1,humanitarian_def_v2,humanitarian_v1,humanitarian_v2,humanitarian_v3,humanitarian_v4,humanitarian_v5,internal_affairs_def_v1,internal_affairs_v1,internal_affairs_v2,maritime_def_v1,maritime_def_v2,maritime_v1,maritime_v2,maritime_v3,maritime_v4,maritime_v5,nuclear_def_v1,nuclear_def_v2,nuclear_v1,nuclear_v2,nuclear_v3,nuclear_v4,nuclear_v5,proxy_def_v1,proxy_def_v2,proxy_v1,proxy_v2,proxy_v3,proxy_v4,proxy_v5,sovereignty_def_v1,sovereignty_v1,sovereignty_v2,strike_def_v1,strike_def_v2,strike_v1,strike_v2,strike_v3,strike_v4,strike_v5,tech_war_def_v1,tech_war_v1,tech_war_v2,trade_def_v1,trade_def_v2,trade_v1,trade_v2,trade_v3,trade_v4,trade_v5
Aeloria,Brevnia,0.19303036853671074,0.07225705683231354,-0.14070702344179153,-0.020493481308221817,0.18387505784630775,-0.19979428499937057,-0.09456062689423561,0.11820220947265625,0.2050480730831623,0.005722515285015106,0.2568092346191406,0.17200756072998047,0.25397109240293503,0.003760814666748047,0.08168410509824753,0.018730688840150833,0.08056069910526276,0.14133360236883163,-0.12248708307743073,0.10325194895267487,-0.002739429473876953,-0.01076507568359375,0.17983245477080345,-0.13234045542776585,-0.19659563526511192,-0.19359971582889557,0.010792288929224014,0.015578724443912506,-0.09880497492849827,0.1966834608465433,0.05898857116699219,-0.003164764493703842,-0.05965709686279297,0.06027985364198685,-0.009875290095806122,-0.031865593045949936,0.11494588851928711,0.31304217129945755,0.13024092465639114,0.11025667563080788,-0.06088923662900925,0.1770944744348526,0.09963561594486237,0.09165045619010925,0.04233790934085846,0.22060537338256836,0.027616038918495178,-0.07176542282104492,-0.13114264607429504,0.2714529149234295,0.0526890829205513,0.09453583508729935,0.0857686996459961,0.05720377713441849,0.2373041845858097,0.33235931396484375,0.2825174331665039,0.039756789803504944,0.29254529997706413,0.12509632483124733,0.25438786298036575,0.03822660446166992,0.16508245468139648,-0.13876722753047943,0.18473243713378906,0.20162106677889824,0.014803417026996613,0.04087162762880325,0.031617164611816406,0.027375705540180206,0.14818043261766434,0.1429004818201065,-0.016200557351112366,-0.17075491696596146,0.012790679931640625,-0.005942806601524353,0.06505726277828217,0.09551618993282318,0.04629039019346237,-0.029222019016742706
Aeloria,Junwei,0.44540788047015667,0.140046589076519,0.24107885360717773,-0.0007257945835590363,0.2428417131304741,-0.04365731030702591,0.03811309114098549,0.028824329376220703,0.07381201535463333,0.13335753977298737,0.37489890307188034,0.044452667236328125,0.34542278572916985,0.03539083153009415,0.42024561762809753,0.5677718948572874,0.16128062084317207,0.20102360844612122,0.3002571873366833,0.18117285519838333,0.4116077497601509,0.2524118423461914,0.6686997041106224,0.45680909790098667,0.1555781587958336,0.47435856610536575,0.45095537789165974,0.15131763741374016,0.11406039819121361,0.033402398228645325,0.014752410352230072,0.05295706167817116,-0.1481652408838272,-0.021876797080039978,0.2337942011654377,0.13097907602787018,0.8854365386068821,0.4254651144146919,0.40362119674682617,0.4457712322473526,0.09654045104980469,0.2019190788269043,0.25314854085445404,0.29698274470865726,0.6613664925098419,0.33568718284368515,0.293120376765728,0.06670235842466354,0.16121623292565346,0.3946824073791504,0.2732996866106987,0.1082300916314125,0.18795205280184746,0.3514552116394043,0.30330514535307884,0.7599587123841047,0.56361910328269,0.34404848515987396,0.5758213642984629,0.20880605280399323,0.39443064481019974,0.2942042276263237,0.29799365997314453,0.1388545148074627,0.1291046291589737,0.4520120695233345,0.36415576934814453,0.2792048528790474,0.30719994008541107,0.35601806640625,0.18376539461314678,0.43732069432735443,0.33290382847189903,0.19339896738529205,-0.0015244372189044952,0.1210351288318634,0.1890554316341877,0.1593293994665146,0.11729336529970169,0.14637232571840286
Aeloria,Zembala,0.4876270480453968,0.3775782659649849,0.45327282324433327,0.24624205566942692,0.38640113547444344,0.30994749441742897,0.18875696882605553,0.19098949432373047,0.5525097995996475,0.24802731722593307,0.3672976531088352,0.26993991434574127,0.34549381770193577,0.34671640396118164,0.3584923967719078,0.5362415239214897,0.22116565331816673,0.28363562002778053,0.1959080770611763,0.2878909036517143,0.34546517580747604,0.2516474463045597,0.5189990811049938,0.37799216993153095,-0.002156708389520645,0.37255001068115234,0.3767632879316807,0.3942746538668871,0.22073791921138763,0.39203883334994316,0.20339727401733398,0.242995735257864,0.11595821380615234,0.14452123641967773,0.26545092836022377,0.374986182898283,0.7125782743096352,0.5734391249716282,0.29986000806093216,0.5235519669950008,0.1656489297747612,0.4724545516073704,0.3264317438006401,0.5288076363503933,0.7725358307361603,0.49051570892333984,0.2554449811577797,0.04759648069739342,0.20067979209125042,0.49457837268710136,0.23600248247385025,0.1069951057434082,0.20256661996245384,0.6950068660080433,0.49778369441628456,0.711467707529664,0.6260681115090847,0.2996516302227974,0.6940050460398197,0.2946968339383602,0.5919041521847248,0.2791600227355957,0.2989530526101589,0.4311118312180042,0.5249615050852299,0.5293269082903862,0.41621971130371094,0.3725414127111435,0.3720517009496689,0.37620019167661667,0.3241505529731512,0.26210927218198776,0.1210026815533638,0.14928435906767845,0.16888237372040749,0.10387608781456947,0.13799333572387695,0.1966109275817871,0.09462690353393555,0.09014413505792618
Country A,Country B,0.007535900920629501,-0.11691619455814362,-0.021616004407405853,-0.03488112986087799,-0.10949660465121269,0.004984866827726364,-0.03787611424922943,-0.1356492042541504,0.02165178209543228,-0.0888967514038086,-0.017514213919639587,0.05861473083496094,0.04457617923617363,0.03602791577577591,-0.14997579157352448,-0.02683066762983799,-0.10600423812866211,-0.06302071362733841,-0.12927915900945663,-0.003658294677734375,-0.11777590960264206,-0.11565732955932617,-0.27480221912264824,-0.2649827394634485,-0.13167334720492363,-0.16036558151245117,-0.06308844313025475,0.0762639194726944,-0.004631981253623962,-0.05790663883090019,-0.09357833862304688,-0.07692909985780716,-0.0781545639038086,0.1419820860028267,0.1106247678399086,0.0558166466653347,-0.1732177808880806,-0.033991336822509766,-0.05943538248538971,-0.1667928621172905,-0.17171908915042877,-0.04154585301876068,-0.09059953689575195,-0.0427851565182209,-0.3486900255084038,-0.17489051073789597,-0.19482561945915222,-0.23863790929317474,0.007047638297080994,-0.08431009203195572,-0.02571200579404831,-0.1278538703918457,-0.07742168754339218,0.04646063596010208,-0.1355557180941105,0.12674568593502045,0.16741133108735085,-0.05456256866455078,0.1324148252606392,0.1226491928100586,0.16788052394986153,-0.03267909586429596,-0.06898118555545807,-0.08077383786439896,0.060474880039691925,0.20746565610170364,0.0797867625951767,0.03751705586910248,0.05551911145448685,-0.012511245906352997,-0.1604580655694008,-0.17943716049194336,-0.14720726758241653,-0.28249455243349075,-0.1554384008049965,-0.05404660850763321,-0.04383467882871628,-0.07029294222593307,-0.10102462768554688,-0.271363265812397
Country X,Country Y,-0.14103414490818977,-0.01156710833311081,-0.20616675168275833,-0.03914546221494675,-0.05763053521513939,-0.09709212929010391,-0.06842279434204102,-0.08238029479980469,-0.1691894456744194,-0.0013756901025772095,-0.005439281463623047,0.0072002410888671875,-0.04425618797540665,-0.009576819837093353,-0.1686835214495659,-0.1746153775602579,-0.11695294082164764,-0.11454107612371445,-0.2546210363507271,-0.10255241394042969,-0.2712678760290146,-0.14705991744995117,-0.22501613572239876,-0.18938115611672401,-0.08456041291356087,-0.16386939585208893,-0.07468029111623764,-0.052517861127853394,-0.011459793895483017,-0.23131227865815163,-0.10724018514156342,-0.0655522271990776,0.009781837463378906,-0.07019377499818802,0.0014996714890003204,-0.11778829991817474,-0.1456918716430664,-0.1853661686182022,-0.10629560798406601,-0.061071351170539856,-0.11861228942871094,-0.014666557312011719,-0.025252342224121094,-0.031149379909038544,-0.048408038914203644,-0.09067345410585403,-0.1308908760547638,-0.08735369890928268,-0.1376524195075035,-0.09192655235528946,-0.07774306833744049,-0.05676700174808502,-0.17931510508060455,-0.08668707311153412,-0.20911789312958717,-0.027486324310302734,0.01964377984404564,-0.12195681780576706,0.023930072784423828,-0.07663106173276901,-0.09753942862153053,-0.09811639785766602,-0.08890628069639206,-0.1473250612616539,-0.09087802469730377,-0.008460033684968948,-0.02825118601322174,-0.07459209859371185,-0.00976705551147461,-0.08936548233032227,-0.2847023122012615,-0.18485116958618164,-0.2906298227608204,-0.23940610140562057,-0.21520425006747246,-0.19597908109426498,-0.10103703290224075,-0.13493632525205612,-0.14411258697509766,-0.19283293187618256
Germany,Japan,-0.05284265801310539,-0.056778889149427414,0.08868790045380592,0.06484176591038704,0.0933656394481659,0.06999783590435982,-0.0358152911067009,0.084503173828125,0.2965836673974991,0.0014090612530708313,0.1562332808971405,0.1065073013305664,-0.08497761934995651,-0.12226152420043945,-0.019876956939697266,0.09770681336522102,-0.005137428641319275,0.12324904650449753,-0.0993337482213974,-0.20914316177368164,-0.11950112134218216,-0.06334351003170013,-0.09227942302823067,-0.1758565790951252,0.09450675547122955,-0.033060550689697266,-0.0745244100689888,0.08912088721990585,0.003453727811574936,0.247679702937603,0.05278443545103073,0.12351228296756744,0.24681280553340912,-0.011407360434532166,0.24785376340150833,0.08151626586914062,0.20407438278198242,0.1593770980834961,0.06017589569091797,0.17395400255918503,0.07731056213378906,0.02408311888575554,0.11475467681884766,0.38431405648589134,0.1247253268957138,0.19803332537412643,-0.1455097422003746,0.01565074920654297,-0.14653348550200462,-0.13782166689634323,0.04171321541070938,0.020659923553466797,-0.16886279731988907,-0.006169795989990234,0.08626748248934746,-0.02342032641172409,0.153962641954422,-0.21319721639156342,0.0705876275897026,-0.19766903668642044,0.13192841410636902,-0.028202056884765625,-0.006981842219829559,-0.04548168182373047,-0.22719574719667435,0.006165981292724609,0.02746722847223282,0.04241801053285599,0.028869152069091797,0.01397707313299179,-0.15053080767393112,-0.1123199462890625,-0.05412670969963074,-0.1796412542462349,0.1350264549255371,-0.06495997309684753,-0.06172703951597214,-0.1649627834558487,-0.029876694083213806,-0.05070304125547409
Germany,Russia,0.5081081092357635,0.18747999146580696,0.16341494396328926,0.03202913701534271,-0.020202137529850006,0.3043918311595917,0.40715888142585754,0.2501087039709091,-0.008825782686471939,-0.11120367795228958,-0.0128621906042099,0.04838085174560547,0.1012578010559082,0.06296155601739883,-0.029518604278564453,0.8818659875541925,0.1988201141357422,0.3655266687273979,0.5208945535123348,0.2768521159887314,0.33946608006954193,0.36035966500639915,0.31466149538755417,0.3178405500948429,0.11334419995546341,0.3901824951171875,0.18738557398319244,0.22149373218417168,0.2504958640784025,0.3026699908077717,-0.09662771224975586,0.3053560368716717,0.3269167095422745,0.00036191195249557495,0.24004793167114258,0.9458713158965111,0.482494805008173,0.31775522977113724,0.408322811126709,0.0843038558959961,0.028126239776611328,0.02896498143672943,0.2344827651977539,0.38883211463689804,0.2215709611773491,0.43920039385557175,-0.0284104123711586,-0.5006217919290066,-0.0020279809832572937,0.028759941458702087,-0.21352910995483398,-0.12566613405942917,-0.05633973330259323,0.051113128662109375,0.1790909543633461,0.03158330172300339,0.10169216990470886,-0.10552071034908295,0.14042141288518906,0.012004375457763672,0.19385908916592598,-0.10459805279970169,-0.06815193593502045,0.2822136953473091,0.07745979726314545,-0.03920508176088333,-0.1971883624792099,-0.12388134002685547,-0.1453709602355957,0.08015680313110352,0.6475634519010782,0.10167311131954193,0.17921974509954453,-0.12992285937070847,-0.22577381134033203,0.11271809786558151,0.32877351343631744,-0.11834240704774857,0.15731574594974518,-0.06968116760253906
Germany,South Korea,0.08869978785514832,0.17131946980953217,0.1891927756369114,0.2832293603569269,-0.13170908764004707,0.20675897225737572,0.1584906429052353,0.07760953903198242,-0.06941703334450722,-0.010338790714740753,-0.08445262163877487,-0.0008211135864257812,-0.10804509371519089,-0.07403802126646042,-0.06752875447273254,0.006005272269248962,-0.005572311580181122,0.11698722839355469,-0.026408672332763672,-0.06126830726861954,0.07047367095947266,0.0515294075012207,-0.050852298736572266,-0.11672681197524071,0.14205406606197357,0.09572505950927734,-0.05635927990078926,0.13503361493349075,0.14538860321044922,0.32253600656986237,0.24035406112670898,0.22456596046686172,0.11519384384155273,0.017589569091796875,0.11762139201164246,0.07839250937104225,0.2614631652832031,-0.05869816988706589,0.07535836845636368,-0.03908870369195938,-0.2956347316503525,-0.1788334921002388,0.06522083282470703,0.3080921024084091,0.06922339648008347,-0.1356678232550621,0.13381048291921616,0.027741894125938416,0.22923041135072708,0.08117485046386719,0.13893842697143555,0.0685281902551651,0.02348516881465912,0.21938848495483398,-0.05628061294555664,0.16460848599672318,0.40053699538111687,-0.03299617022275925,0.08523842692375183,0.0027055665850639343,0.18636322394013405,-0.01865769922733307,0.0245065838098526,-0.208006389439106,-0.027735233306884766,-0.2173151597380638,0.04912279546260834,-0.10065555572509766,-0.05064249038696289,0.007509708404541016,-0.11387208849191666,-0.03461933135986328,-0.10122488997876644,-0.028940677642822266,-0.1838693618774414,0.10903499647974968,0.09253593534231186,-0.09572649747133255,0.019792556762695312,-0.11260891705751419
India,Russia,0.47609041817486286,0.3501000367105007,0.21441794373095036,0.12535905465483665,0.4603891596198082,0.3514767289161682,0.46642258390784264,0.14119958877563477,0.3221325911581516,0.027375221252441406,0.29223014041781425,0.33089160919189453,0.4415283501148224,0.4542059823870659,0.31792880594730377,0.7213091813027859,0.1916818581521511,0.3135466240346432,0.5866160169243813,0.4389209896326065,0.29990341141819954,0.3377046287059784,0.3882790058851242,0.3448348008096218,0.2630324624478817,0.30878401547670364,0.2915973737835884,0.5997152272611856,0.3101449068635702,0.3894815221428871,0.14051532000303268,0.1781144067645073,0.5623173788189888,0.2999267652630806,0.28396798484027386,0.9237599773332477,0.5845513194799423,0.755157969892025,0.4140625,0.5546126291155815,0.4657106474041939,0.4566211923956871,0.4869208261370659,0.5656957551836967,0.6322803422808647,0.6661276742815971,0.17317963391542435,-0.07004833966493607,0.07428932562470436,-0.08421993255615234,0.11235857754945755,0.017703533172607422,0.2939458005130291,0.33373306691646576,0.45432518795132637,0.34473512321710587,0.24828387051820755,0.050113677978515625,0.3483061734586954,0.4396061785519123,0.49941633827984333,0.2589859813451767,0.20326374471187592,0.549365047365427,0.3320303149521351,0.44020986184477806,0.242278590798378,0.225312702357769,0.13903141021728516,0.2249131202697754,0.7592325136065483,0.15941477566957474,0.7154222019016743,0.2312445491552353,0.2889375686645508,0.3639316689223051,0.4287896230816841,0.19742394238710403,0.30826376006007195,0.34602881222963333
Japan,China,0.4070563241839409,0.16679098084568977,0.08866693079471588,-0.1142444908618927,0.07216024026274681,0.24805643036961555,0.17050885409116745,-0.024547576904296875,-0.39548443257808685,-0.25670338422060013,-0.3377218246459961,-0.12443971633911133,-0.07087422907352448,-0.20766258612275124,-0.19796894490718842,0.08640003949403763,0.0240192711353302,-0.02199840545654297,0.30588342249393463,0.13930176943540573,0.29544925689697266,0.13985444232821465,0.25725127570331097,0.1047353744506836,-0.07441661134362221,0.23356295377016068,-0.09107828512787819,0.05625339783728123,0.08549834415316582,-0.4145698696374893,-0.07131099700927734,-0.021458622068166733,-0.26659345626831055,-0.4804992750287056,-0.09321646019816399,0.399207578971982,-0.10512399673461914,-0.40036533772945404,0.02713441103696823,-0.025186531245708466,-0.12467813491821289,0.2865943871438503,0.374419704079628,0.42066335678100586,0.7631855048239231,0.273315891623497,0.07371044903993607,-0.4346589967608452,-0.1675877794623375,0.07142114639282227,-0.17095135897397995,-0.1994476467370987,-0.07920647412538528,-0.1650700569152832,-0.10686685517430305,0.09247972443699837,0.032011471688747406,0.04746532440185547,0.18509627878665924,0.05800103396177292,-0.2999963350594044,-0.14664173126220703,-0.2818283885717392,-0.15332219749689102,0.034936897456645966,-0.15306760370731354,-0.43656396865844727,-0.2572760730981827,-0.29966021329164505,-0.10406063497066498,0.27278999239206314,0.16152238845825195,0.006026275455951691,-0.37997865676879883,-0.6097765006124973,-0.4593147970736027,0.02709006518125534,-0.2917652130126953,-0.11373568326234818,-0.23618127405643463
Junwei,Khemara,0.2607216276228428,0.2675924263894558,0.12778471037745476,0.2417907454073429,0.21698571369051933,0.22611620277166367,0.3558335267007351,0.023925304412841797,0.48483804427087307,0.22502372413873672,0.1760873794555664,0.16237401962280273,0.05840350687503815,0.19194698333740234,-0.05658578872680664,-0.17445039004087448,0.1696610301733017,0.1438259705901146,-0.009245365858078003,0.2398834154009819,0.035948291420936584,0.025002479553222656,-0.2927389107644558,0.16384650394320488,0.11630678549408913,0.13122320920228958,-0.03554631397128105,0.30602262541651726,0.16717341542243958,0.48656558990478516,0.2430558204650879,0.24336721003055573,0.37137651443481445,0.38376808911561966,0.3336072154343128,0.5135107152163982,-0.15375233441591263,0.06319807469844818,0.09285974502563477,0.3781185448169708,0.1424112319946289,0.28235816955566406,0.40131139010190964,0.07801437377929688,0.06497813016176224,0.43771742656826973,0.22635888308286667,-0.06661508977413177,0.2203674279153347,-0.08677291125059128,0.13573356717824936,0.05098722130060196,0.18050288036465645,0.7223157845437527,0.147950179874897,0.4436950944364071,0.30077599361538887,0.22532081604003906,0.5862774681299925,0.4352254755795002,0.4362659454345703,-0.01065158098936081,0.01239776611328125,0.6252531930804253,0.7819995526224375,0.36912013962864876,0.2640085145831108,0.3037285655736923,0.19688987731933594,0.22574711591005325,0.13084078580141068,-0.09567927569150925,0.04886246100068092,-0.09608795493841171,0.16170360893011093,0.13681217655539513,0.0003533288836479187,0.09694670885801315,0.017552830278873444,0.08648109436035156
Nation 1,Nation 2,-0.1377554014325142,-0.04136132448911667,-0.17615175247192383,-0.2022232972085476,-0.3121066093444824,-0.15056181699037552,-0.024884238839149475,-0.09868049621582031,-0.09844970703125,-0.14894580841064453,-0.046502575278282166,0.007469654083251953,0.0737752914428711,-0.05534553527832031,-0.2944774627685547,0.09225843474268913,-0.13550712168216705,-0.06481218338012695,-0.042267799377441406,-0.055085182189941406,-0.14070463180541992,-0.21316196024417877,-0.1479000821709633,-0.24560212343931198,-0.21171237155795097,-0.10067415237426758,-0.10445882752537727,0.0872054323554039,-0.07143304497003555,-0.09682797640562057,-0.1880783960223198,-0.11304328590631485,-0.12960243225097656,0.04426240921020508,-0.0004706457257270813,-0.006592743098735809,-0.056359291076660156,-0.008162498474121094,-0.09812452644109726,-0.11222077161073685,-0.2178482934832573,-0.1508646085858345,-0.1575450897216797,0.027901634573936462,-0.2606935352087021,-0.30236291512846947,-0.128020279109478,-0.17513608932495117,-0.12575148418545723,-0.03650756925344467,-0.08644817769527435,-0.0949554443359375,-0.10297726094722748,-0.0007133334875106812,-0.20964335650205612,-0.0030989311635494232,0.06243181973695755,-0.1833667755126953,0.12436436116695404,0.05673263967037201,0.10346700251102448,-0.11598588526248932,-0.11609839648008347,-0.16016004979610443,0.0471033975481987,0.12792015075683594,0.05863621085882187,-0.02533387392759323,0.044364914298057556,0.05188894271850586,-0.1865091323852539,-0.14397716522216797,-0.3384818695485592,-0.19680453091859818,-0.15685845166444778,-0.18723440915346146,-0.11747218668460846,-0.009008415043354034,-0.1719074249267578,-0.2724495083093643
Saudi Arabia,Iran,0.8090977789834142,0.2740197144448757,0.45538805797696114,0.31181575544178486,0.5894050486385822,0.6716260947287083,0.5671181753277779,-0.08096599578857422,0.4387521781027317,0.3192920908331871,0.4004659615457058,0.10787534713745117,0.23617124557495117,0.14217710494995117,0.1511072888970375,0.24192571267485619,0.13782881945371628,0.32509567588567734,0.2851981930434704,0.2991452105343342,0.2255120351910591,0.08190964534878731,0.49364137277007103,0.46043399162590504,0.12367964908480644,0.42833375185728073,0.2707328386604786,0.6534862853586674,-0.05813983827829361,0.05697347968816757,0.3634338304400444,0.05319023132324219,0.04674863815307617,0.01848505437374115,0.1889491081237793,0.5558576360344887,-0.1501755714416504,-0.08402347564697266,0.08138037472963333,0.49237871170043945,0.4658966138958931,0.5739717334508896,0.7249641343951225,0.49241115525364876,0.4983563646674156,0.6053633540868759,0.5519848093390465,-0.08773946762084961,0.5691714249551296,0.022639751434326172,0.1097259595990181,0.04837130010128021,0.21428678557276726,0.2825322151184082,0.02504350244998932,0.5534734483808279,0.6150421816855669,0.4470348358154297,0.6881328020244837,0.4764990620315075,-0.08292387053370476,0.23067187517881393,0.1435876041650772,0.7893605157732964,0.6328467987477779,0.911498561501503,0.3018193244934082,0.3998742252588272,0.4601163938641548,0.40175773203372955,0.4353738147765398,0.06426334381103516,0.20177745632827282,-0.03021717071533203,0.16299914941191673,0.07971625402569771,0.03901863843202591,0.06200219690799713,0.16288568452000618,-0.1386728286743164
South Korea,Saudi Arabia,0.16164683550596237,-0.06505439430475235,-0.1640586480498314,-0.38875199295580387,-0.13300132006406784,-0.22501370683312416,0.06519076973199844,0.060672760009765625,-0.20794202014803886,-0.21419096365571022,-0.17595766484737396,-0.015040397644042969,0.10042142495512962,-0.12269782274961472,0.06461811065673828,0.2271256409585476,0.05118033289909363,0.0401463583111763,0.30176258832216263,0.0958557054400444,-0.07908058911561966,0.12433764711022377,0.2990765701979399,-0.021969322115182877,0.03724955767393112,0.13537216931581497,0.23775912076234818,-0.029708418995141983,0.009049899876117706,0.02142193913459778,-0.21922922134399414,-0.18185094371438026,0.35323382914066315,-0.06478691101074219,0.15677163563668728,0.42629523389041424,0.5912737809121609,0.6155071221292019,0.2187337875366211,0.22705412656068802,0.05131864547729492,0.05426931381225586,0.0996708869934082,0.18022583797574043,0.36238668859004974,0.387589905411005,0.019410155713558197,-0.30342820286750793,-0.29990480840206146,0.10801460593938828,-0.023606300354003906,-0.15058422833681107,0.0770702175796032,-0.2566332742571831,0.41115668416023254,-0.17461345344781876,-0.37499047070741653,-0.6651925817131996,-0.11133386194705963,-0.302750576287508,0.13103679195046425,-0.010448940098285675,0.1360788345336914,-0.03099203109741211,-0.13779541850090027,-0.2599973678588867,-0.20517302304506302,-0.10593606531620026,-0.27126073837280273,-0.014947906136512756,0.5143312951549888,0.11603449285030365,0.3837738148868084,0.05481717735528946,0.006090663373470306,0.1762986145913601,0.023441791534423828,0.18793441355228424,0.03300093486905098,0.14045142382383347
State Alpha,State Beta,-0.22139690071344376,-0.013326160609722137,-0.09679125994443893,-0.2428741566836834,-0.16132830828428268,0.12994100153446198,0.06515073776245117,-0.1731433868408203,-0.12881611660122871,-0.07804633677005768,0.03194478526711464,-0.021983623504638672,0.0010151639580726624,0.053014740347862244,-0.11873484402894974,-0.08137944899499416,-0.11087128520011902,-0.12014815956354141,-0.14775802195072174,-0.08216046541929245,-0.2865724489092827,-0.18062306940555573,-0.32659097388386726,-0.30113696679472923,-0.24939441308379173,-0.21207188814878464,-0.14858384802937508,0.10452989488840103,-0.0017118677496910095,-0.07563304528594017,-0.06865358352661133,-0.12639714032411575,-0.011808395385742188,0.025992870330810547,0.11295986920595169,-0.01645180955529213,-0.11955976486206055,-0.09118366986513138,-0.08392621576786041,-0.023828037083148956,-0.21635819971561432,-0.13274860382080078,-0.030155189335346222,0.1275939643383026,-0.13807202875614166,-0.20311645418405533,-0.17655418813228607,-0.11282777786254883,-0.05407668650150299,-0.0543217658996582,-0.04008006304502487,-0.02587650716304779,-0.2142491191625595,-0.03749847412109375,-0.22429658472537994,0.04846670478582382,0.008750416338443756,-0.20012566447257996,0.03379819542169571,0.04462573304772377,-0.051055945456027985,-0.14345978200435638,-0.08674859255552292,-0.19820880889892578,-0.05894850194454193,-0.016285907477140427,-0.006006255745887756,-0.03676985204219818,-0.008108623325824738,-0.00949859619140625,-0.1804828941822052,-0.2583794593811035,-0.17622236534953117,-0.26434801518917084,-0.22297094389796257,-0.190567497164011,-0.06571866571903229,-0.09057141095399857,-0.14396381378173828,-0.24303053319454193
UK,France,0.21368693374097347,0.1254868544638157,0.07277774438261986,-0.05890557914972305,0.19829178228974342,-0.0840144231915474,0.10114621743559837,0.09899139404296875,0.11164620146155357,0.0036401674151420593,0.08368207514286041,0.24367952346801758,0.0706334039568901,-0.10094926133751869,0.10897636413574219,0.25815488398075104,0.039035797119140625,0.13573408126831055,0.23839997500181198,0.11394499242305756,0.07838154584169388,0.01812126114964485,0.4226202890276909,0.05136680230498314,-0.0075459666550159454,0.17697812616825104,0.06616782024502754,0.4177265129983425,0.06587028503417969,0.1095261387526989,0.08602428436279297,0.014089077711105347,0.19846010208129883,0.030074112117290497,0.25611161813139915,0.4076595604419708,0.34206201136112213,0.3986940309405327,0.313413605093956,0.4310283847153187,0.6771764606237411,0.9446687549352646,0.6946225166320801,0.8539295196533203,0.8332128301262856,0.7759451940655708,0.03913070261478424,-0.16046521812677383,0.047012779861688614,0.16445539146661758,0.013570800423622131,-0.013702392578125,-0.080427635461092,0.12694741040468216,0.4614739380776882,0.14104890078306198,0.07252934575080872,-0.03498314321041107,0.16700171306729317,0.0070858001708984375,0.3155512809753418,0.22935103625059128,0.09408997744321823,0.17939089983701706,0.20076656341552734,0.2669854238629341,0.1918816715478897,0.20349979400634766,-0.041751861572265625,0.2814292833209038,0.4136924706399441,0.17570208758115768,0.1401667445898056,0.22502803057432175,0.32411812245845795,0.20934579893946648,0.35615257173776627,0.22930002212524414,0.23575257509946823,0.42841434478759766
UK,India,0.11897704750299454,-0.15501689165830612,0.01327519677579403,-0.045472124591469765,-0.10845088213682175,-0.13273144140839577,-0.08865594491362572,0.029552936553955078,-0.12115099281072617,-0.13509321957826614,-0.1603531911969185,-0.17620275914669037,-0.2999706119298935,-0.2817883864045143,-0.17325354367494583,0.13978097587823868,-0.04403018206357956,0.021831989288330078,-0.04904317855834961,-0.10027025640010834,-0.04111386090517044,-0.13376617059111595,0.12056111544370651,-0.1942424699664116,-0.10781288519501686,0.13630008697509766,-0.12910937890410423,-0.17985012754797935,-0.11064863950014114,0.14651870727539062,0.08508729934692383,0.10318993777036667,0.014093399047851562,-0.21439266204833984,0.028178222477436066,0.012922775000333786,-0.0634312629699707,-0.41035984456539154,-0.06314180791378021,-0.08880138397216797,0.0005855560302734375,-0.05972480773925781,-0.05318593233823776,0.0850534439086914,-0.13275624066591263,-0.17052503675222397,-0.09784696251153946,-0.36208056658506393,0.09779167920351028,0.19440124928951263,-0.1343998834490776,-0.04843899607658386,-0.27723121270537376,-0.09188079088926315,-0.11510847508907318,0.026388633996248245,0.0701603889465332,0.037388816475868225,0.17121313884854317,-0.22725677862763405,-0.06928635761141777,-0.10119868069887161,-0.10511636734008789,-0.3541093021631241,-0.03884744644165039,-0.009581580758094788,-0.03129768371582031,-0.03732872009277344,-0.057210445404052734,0.07354497164487839,-0.5102477222681046,-0.12580155581235886,-0.5445933360606432,-0.41441965848207474,-0.19855833798646927,-0.2943739928305149,-0.2075481414794922,-0.21910285204648972,-0.10582209378480911,-0.38605497777462006
UK,Nigeria,0.40662721171975136,0.3853755034506321,0.32160854153335094,0.31512495316565037,0.32122232019901276,0.42577264457941055,0.3309917598962784,0.2323932722210884,0.28861096501350403,0.31386376172304153,0.31585264205932617,0.17478704452514648,0.2038888856768608,0.13956640660762787,0.11642169952392578,0.49798106402158737,0.10331486910581589,0.16202879697084427,0.30213406682014465,0.21923445910215378,0.1478719860315323,0.0517716184258461,0.491791732609272,0.18227145448327065,0.24096870049834251,0.33788299560546875,0.2314295694231987,0.7303662393242121,0.2365250289440155,0.503638245165348,0.43225668370723724,0.36402273178100586,0.33452892303466797,0.0830988958477974,0.3236231803894043,0.5225801449269056,0.29590413719415665,0.14951849728822708,0.3329920768737793,0.5215315781533718,0.2435455396771431,0.823976032435894,0.6215605735778809,0.6536469273269176,0.5822606161236763,0.6535811275243759,0.28856276720762253,-0.008135773241519928,0.3613791912794113,0.31870555132627487,0.26868342608213425,0.19913528859615326,0.09306290000677109,0.2515897750854492,0.3244004361331463,0.23020218312740326,0.30935142934322357,0.2145533561706543,0.32649755850434303,-0.018463589251041412,0.6047439351677895,0.3250908926129341,0.12799980491399765,0.018627144396305084,0.2597508281469345,0.4274306669831276,0.2378549426794052,0.21863126754760742,0.2089700773358345,0.3928103372454643,-0.04879280552268028,0.1900315210223198,-0.11046985909342766,-0.011376850306987762,0.057404518127441406,0.20699882879853249,0.0015497058629989624,-0.025646217167377472,0.16915705054998398,-0.11596108227968216
USA,China,0.44103951938450336,0.41350603476166725,0.35062552988529205,0.23522378504276276,0.2109803706407547,0.47521592304110527,0.42026137188076973,0.17375659942626953,0.06154629960656166,0.09081507474184036,0.3444957733154297,0.16208410263061523,0.26780030503869057,0.014065749943256378,0.20283222198486328,0.9676304254680872,0.19240760803222656,0.316005676984787,0.49552537500858307,0.2637777179479599,0.4640240706503391,0.328886017203331,0.5899934619665146,0.39624546095728874,0.18880367279052734,0.697443000972271,0.31595612317323685,0.8322806805372238,0.22252894192934036,0.2256794273853302,0.3592982366681099,-0.007706664502620697,0.3062782287597656,0.021458148956298828,0.2910914197564125,0.7433271147310734,0.5788478776812553,0.13526201248168945,0.42665719240903854,0.5144738964736462,0.6106314659118652,0.6846256256103516,0.7036352381110191,0.7824334613978863,1.0897774733603,0.81734224781394,0.516883846372366,0.33706092834472656,0.13820597901940346,0.6863379701972008,0.13317392766475677,0.2848363071680069,0.20697832852602005,0.08431576192378998,0.5563511587679386,0.2476358413696289,0.3248910680413246,0.10260725766420364,0.5298261679708958,0.2322692722082138,0.5025553815066814,0.5939159579575062,0.0536499097943306,0.09966706484556198,0.41545722633600235,0.5745811387896538,0.16510914266109467,0.2510566711425781,0.16788578033447266,0.4272432401776314,0.543905770406127,0.3775324821472168,0.4049673117697239,-0.20141933858394623,0.1894521489739418,0.26374006643891335,0.24210023880004883,0.09083986282348633,0.04694608598947525,0.1588282510638237
Zembala,Junwei,-0.13859032467007637,-0.1311807632446289,-0.10368208587169647,-0.23944805935025215,-0.1404266059398651,-0.3513355404138565,-0.13172723352909088,-0.06047964096069336,-0.3282599188387394,-0.11064482480287552,-0.021421924233436584,-0.18505525588989258,0.0955834612250328,-0.2522878721356392,0.063751220703125,0.35884236358106136,-0.08619214594364166,-0.028522983193397522,0.08328818529844284,-0.07146307826042175,0.07407332956790924,0.03665876388549805,0.2659769169986248,0.03898428753018379,0.04273083806037903,0.03304051607847214,0.2035484593361616,-0.16178555227816105,-0.09878060221672058,-0.29089976847171783,-0.09310531616210938,-0.13569403439760208,-0.24969244003295898,-0.1644439697265625,-0.03694584220647812,-0.17806005105376244,0.15576600283384323,0.039603687822818756,0.10271880775690079,-0.13005636632442474,-0.07136774808168411,-0.1229701042175293,-0.05888843536376953,0.01656772941350937,0.10663077980279922,-0.16454175114631653,0.05819651484489441,0.05985116958618164,-0.07882357016205788,0.0331258699297905,-0.025760218501091003,0.019343845546245575,-0.07421208173036575,-0.3821220397949219,0.06822917610406876,-0.011158041656017303,0.04611876606941223,-0.022137627005577087,-0.18963433429598808,-0.04390237480401993,-0.09503457695245743,0.08570338040590286,0.019263729453086853,-0.3590831719338894,-0.3391542434692383,-0.08354711905121803,-0.019382961094379425,-0.0977935940027237,-0.08294963836669922,-0.016860485076904297,-0.04485277831554413,0.13634775578975677,0.1373739205300808,0.09051227569580078,-0.166139118373394,0.04053402692079544,0.07109211757779121,0.05162334442138672,0.02434491366147995,-0.006977088749408722
Zembala,Kotundi,-0.44479607976973057,-0.36177922040224075,-0.4401368983089924,-0.45727916434407234,-0.2809176705777645,-0.6742553561925888,-0.2756834030151367,-0.11783742904663086,-0.5106792729347944,-0.1595597267150879,-0.3492388688027859,-0.21062708646059036,0.05714892968535423,-0.3533806800842285,-0.358248695731163,-0.10804080590605736,-0.15965843573212624,-0.17029521614313126,-0.14302729815244675,-0.18137168139219284,-0.1484522745013237,-0.1847829781472683,-0.1395573802292347,-0.39219899475574493,-0.19159798696637154,-0.21651934832334518,-0.3303284365683794,-0.28203440457582474,-0.28971242904663086,-0.22237488999962807,-0.08621407300233841,-0.25750209391117096,-0.17525815218687057,-0.2228522151708603,-0.28702354803681374,-0.15207388252019882,-0.2821784093976021,-0.14232490956783295,-0.0728440135717392,-0.46593572944402695,-0.16658926755189896,-0.33077191561460495,-0.20206499099731445,-0.1610107384622097,-0.3687891811132431,-0.26622773706912994,-0.12086629867553711,-0.10621786117553711,-0.08627890422940254,-0.21655894815921783,-0.18516777455806732,-0.0957627147436142,-0.11950062960386276,-0.4008636623620987,-0.2758684456348419,-0.2506747655570507,-0.3721947707235813,-0.06656885892152786,-0.25227736309170723,-0.09062624722719193,-0.28587673604488373,-0.28494880348443985,0.006843075156211853,-0.43892670050263405,-0.24817132577300072,-0.24561022967100143,-0.14951277524232864,-0.20827671885490417,-0.24994945526123047,-0.12094783782958984,0.03510618209838867,-0.019472599029541016,-0.14455368369817734,-0.16789960116147995,-0.16551829129457474,0.059329986572265625,-0.12304592877626419,-0.10663796961307526,-0.20989420637488365,-0.14002705365419388
